digraph Tree {
node [shape=box, style="filled, rounded", color="black", fontname="helvetica"] ;
edge [fontname="helvetica"] ;
0 [label="density <= 0.99\nsquared_error = 1.52\nsamples = 3918\nvalue = 10.52", fillcolor="#f6d1b7"] ;
1 [label="density <= 0.99\nsquared_error = 0.85\nsamples = 1384\nvalue = 11.72", fillcolor="#eda774"] ;
0 -> 1 [labeldistance=2.5, labelangle=45, headlabel="True"] ;
5 [label="density <= 0.99\nsquared_error = 0.38\nsamples = 408\nvalue = 12.52", fillcolor="#e78b48"] ;
1 -> 5 ;
25 [label="squared_error = 0.28\nsamples = 208\nvalue = 12.79", fillcolor="#e58139"] ;
5 -> 25 ;
26 [label="squared_error = 0.33\nsamples = 200\nvalue = 12.24", fillcolor="#e99558"] ;
5 -> 26 ;
6 [label="residual sugar <= 3.45\nsquared_error = 0.66\nsamples = 976\nvalue = 11.39", fillcolor="#efb287"] ;
1 -> 6 ;
7 [label="density <= 0.99\nsquared_error = 0.51\nsamples = 687\nvalue = 11.12", fillcolor="#f1bc96"] ;
6 -> 7 ;
11 [label="residual sugar <= 1.43\nsquared_error = 0.32\nsamples = 325\nvalue = 11.54", fillcolor="#eead7e"] ;
7 -> 11 ;
35 [label="squared_error = 0.21\nsamples = 139\nvalue = 11.26", fillcolor="#f0b78e"] ;
11 -> 35 ;
36 [label="squared_error = 0.3\nsamples = 186\nvalue = 11.75", fillcolor="#eda673"] ;
11 -> 36 ;
12 [label="density <= 0.99\nsquared_error = 0.38\nsamples = 362\nvalue = 10.74", fillcolor="#f4c9ab"] ;
7 -> 12 ;
29 [label="squared_error = 0.29\nsamples = 168\nvalue = 11.01", fillcolor="#f2c09c"] ;
12 -> 29 ;
30 [label="squared_error = 0.33\nsamples = 194\nvalue = 10.5", fillcolor="#f6d2b8"] ;
12 -> 30 ;
8 [label="density <= 0.99\nsquared_error = 0.43\nsamples = 289\nvalue = 12.03", fillcolor="#eb9c63"] ;
6 -> 8 ;
33 [label="squared_error = 0.37\nsamples = 167\nvalue = 12.25", fillcolor="#e99457"] ;
8 -> 33 ;
34 [label="squared_error = 0.35\nsamples = 122\nvalue = 11.73", fillcolor="#eda774"] ;
8 -> 34 ;
2 [label="density <= 1.0\nsquared_error = 0.66\nsamples = 2534\nvalue = 9.86", fillcolor="#fae8db"] ;
0 -> 2 [labeldistance=2.5, labelangle=-45, headlabel="False"] ;
3 [label="residual sugar <= 8.22\nsquared_error = 0.64\nsamples = 1295\nvalue = 10.25", fillcolor="#f7dac5"] ;
2 -> 3 ;
9 [label="chlorides <= 0.05\nsquared_error = 0.51\nsamples = 1079\nvalue = 10.1", fillcolor="#f9e0ce"] ;
3 -> 9 ;
15 [label="fixed acidity <= 6.75\nsquared_error = 0.48\nsamples = 611\nvalue = 10.32", fillcolor="#f7d8c2"] ;
9 -> 15 ;
19 [label="squared_error = 0.35\nsamples = 258\nvalue = 10.03", fillcolor="#f9e2d2"] ;
15 -> 19 ;
20 [label="residual sugar <= 4.1\nsquared_error = 0.47\nsamples = 353\nvalue = 10.53", fillcolor="#f5d1b6"] ;
15 -> 20 ;
21 [label="squared_error = 0.3\nsamples = 193\nvalue = 10.24", fillcolor="#f8dbc6"] ;
20 -> 21 ;
22 [label="density <= 0.99\nsquared_error = 0.45\nsamples = 160\nvalue = 10.89", fillcolor="#f3c4a2"] ;
20 -> 22 ;
27 [label="squared_error = 0.28\nsamples = 92\nvalue = 11.24", fillcolor="#f0b88f"] ;
22 -> 27 ;
28 [label="squared_error = 0.27\nsamples = 68\nvalue = 10.41", fillcolor="#f6d5bd"] ;
22 -> 28 ;
16 [label="squared_error = 0.4\nsamples = 468\nvalue = 9.82", fillcolor="#fbeadd"] ;
9 -> 16 ;
10 [label="density <= 0.99\nsquared_error = 0.62\nsamples = 216\nvalue = 11.0", fillcolor="#f2c09c"] ;
3 -> 10 ;
17 [label="squared_error = 0.45\nsamples = 127\nvalue = 11.37", fillcolor="#efb388"] ;
10 -> 17 ;
18 [label="residual sugar <= 13.72\nsquared_error = 0.4\nsamples = 89\nvalue = 10.48", fillcolor="#f6d2b9"] ;
10 -> 18 ;
37 [label="squared_error = 0.19\nsamples = 81\nvalue = 10.34", fillcolor="#f7d7c0"] ;
18 -> 37 ;
38 [label="squared_error = 0.27\nsamples = 8\nvalue = 11.91", fillcolor="#eba06a"] ;
18 -> 38 ;
4 [label="density <= 1.0\nsquared_error = 0.36\nsamples = 1239\nvalue = 9.45", fillcolor="#fdf7f2"] ;
2 -> 4 ;
13 [label="residual sugar <= 12.53\nsquared_error = 0.39\nsamples = 607\nvalue = 9.7", fillcolor="#fbeee4"] ;
4 -> 13 ;
23 [label="fixed acidity <= 7.75\nsquared_error = 0.3\nsamples = 534\nvalue = 9.61", fillcolor="#fcf1e9"] ;
13 -> 23 ;
31 [label="squared_error = 0.24\nsamples = 453\nvalue = 9.53", fillcolor="#fdf4ee"] ;
23 -> 31 ;
32 [label="squared_error = 0.38\nsamples = 81\nvalue = 10.09", fillcolor="#f9e0cf"] ;
23 -> 32 ;
24 [label="squared_error = 0.56\nsamples = 73\nvalue = 10.34", fillcolor="#f7d7c0"] ;
13 -> 24 ;
14 [label="squared_error = 0.21\nsamples = 632\nvalue = 9.21", fillcolor="#ffffff"] ;
4 -> 14 ;
}