digraph Tree {
node [shape=box, style="filled, rounded", color="black", fontname="helvetica"] ;
edge [fontname="helvetica"] ;
0 [label="alcohol <= 10.75\ngini = 0.67\nsamples = 3918\nvalue = [15, 130, 1170, 1764, 701, 134, 4]\nclass = l", fillcolor="#d4f9f9"] ;
1 [label="volatile acidity <= 0.24\ngini = 0.62\nsamples = 2368\nvalue = [9, 95, 1002, 1036, 196, 29, 1]\nclass = l", fillcolor="#fafefe"] ;
0 -> 1 [labeldistance=2.5, labelangle=45, headlabel="True"] ;
2 [label="sulphates <= 0.48\ngini = 0.6\nsamples = 865\nvalue = [2, 16, 195, 493, 136, 23, 0]\nclass = l", fillcolor="#a7f3f2"] ;
1 -> 2 ;
3 [label="pH <= 2.99\ngini = 0.63\nsamples = 480\nvalue = [2, 10, 136, 247, 65, 20, 0]\nclass = l", fillcolor="#bff7f6"] ;
2 -> 3 ;
4 [label="density <= 1.0\ngini = 0.71\nsamples = 70\nvalue = [0, 2, 17, 23, 24, 4, 0]\nclass = i", fillcolor="#fbfbfe"] ;
3 -> 4 ;
5 [label="fixed acidity <= 7.35\ngini = 0.59\nsamples = 37\nvalue = [0, 2, 14, 19, 2, 0, 0]\nclass = l", fillcolor="#d4f9f9"] ;
4 -> 5 ;
6 [label="fixed acidity <= 6.55\ngini = 0.41\nsamples = 20\nvalue = [0, 1, 3, 15, 1, 0, 0]\nclass = l", fillcolor="#73edeb"] ;
5 -> 6 ;
7 [label="fixed acidity <= 6.05\ngini = 0.69\nsamples = 7\nvalue = [0, 1, 3, 2, 1, 0, 0]\nclass = a", fillcolor="#d7fadb"] ;
6 -> 7 ;
8 [label="free sulfur dioxide <= 73.5\ngini = 0.5\nsamples = 2\nvalue = [0, 1, 0, 0, 1, 0, 0]\nclass = u", fillcolor="#ffffff"] ;
7 -> 8 ;
9 [label="gini = 0.0\nsamples = 1\nvalue = [0, 1, 0, 0, 0, 0, 0]\nclass = u", fillcolor="#b7e539"] ;
8 -> 9 ;
10 [label="gini = 0.0\nsamples = 1\nvalue = [0, 0, 0, 0, 1, 0, 0]\nclass = i", fillcolor="#3956e5"] ;
8 -> 10 ;
11 [label="citric acid <= 0.55\ngini = 0.48\nsamples = 5\nvalue = [0, 0, 3, 2, 0, 0, 0]\nclass = a", fillcolor="#bdf6c4"] ;
7 -> 11 ;
12 [label="chlorides <= 0.04\ngini = 0.44\nsamples = 3\nvalue = [0, 0, 1, 2, 0, 0, 0]\nclass = l", fillcolor="#9cf2f0"] ;
11 -> 12 ;
13 [label="gini = 0.0\nsamples = 1\nvalue = [0, 0, 1, 0, 0, 0, 0]\nclass = a", fillcolor="#39e54d"] ;
12 -> 13 ;
14 [label="gini = 0.0\nsamples = 2\nvalue = [0, 0, 0, 2, 0, 0, 0]\nclass = l", fillcolor="#39e5e2"] ;
12 -> 14 ;
15 [label="gini = 0.0\nsamples = 2\nvalue = [0, 0, 2, 0, 0, 0, 0]\nclass = a", fillcolor="#39e54d"] ;
11 -> 15 ;
16 [label="gini = 0.0\nsamples = 13\nvalue = [0, 0, 0, 13, 0, 0, 0]\nclass = l", fillcolor="#39e5e2"] ;
6 -> 16 ;
17 [label="pH <= 2.93\ngini = 0.52\nsamples = 17\nvalue = [0, 1, 11, 4, 1, 0, 0]\nclass = a", fillcolor="#94f19f"] ;
5 -> 17 ;
18 [label="citric acid <= 0.31\ngini = 0.22\nsamples = 8\nvalue = [0, 1, 7, 0, 0, 0, 0]\nclass = a", fillcolor="#55e966"] ;
17 -> 18 ;
19 [label="volatile acidity <= 0.2\ngini = 0.5\nsamples = 2\nvalue = [0, 1, 1, 0, 0, 0, 0]\nclass = u", fillcolor="#ffffff"] ;
18 -> 19 ;
20 [label="gini = 0.0\nsamples = 1\nvalue = [0, 1, 0, 0, 0, 0, 0]\nclass = u", fillcolor="#b7e539"] ;
19 -> 20 ;
21 [label="gini = 0.0\nsamples = 1\nvalue = [0, 0, 1, 0, 0, 0, 0]\nclass = a", fillcolor="#39e54d"] ;
19 -> 21 ;
22 [label="gini = 0.0\nsamples = 6\nvalue = [0, 0, 6, 0, 0, 0, 0]\nclass = a", fillcolor="#39e54d"] ;
18 -> 22 ;
23 [label="total sulfur dioxide <= 103.0\ngini = 0.59\nsamples = 9\nvalue = [0, 0, 4, 4, 1, 0, 0]\nclass = a", fillcolor="#ffffff"] ;
17 -> 23 ;
24 [label="gini = 0.0\nsamples = 3\nvalue = [0, 0, 0, 3, 0, 0, 0]\nclass = l", fillcolor="#39e5e2"] ;
23 -> 24 ;
25 [label="fixed acidity <= 8.55\ngini = 0.5\nsamples = 6\nvalue = [0, 0, 4, 1, 1, 0, 0]\nclass = a", fillcolor="#88ef94"] ;
23 -> 25 ;
26 [label="gini = 0.0\nsamples = 4\nvalue = [0, 0, 4, 0, 0, 0, 0]\nclass = a", fillcolor="#39e54d"] ;
25 -> 26 ;
27 [label="density <= 0.99\ngini = 0.5\nsamples = 2\nvalue = [0, 0, 0, 1, 1, 0, 0]\nclass = l", fillcolor="#ffffff"] ;
25 -> 27 ;
28 [label="gini = 0.0\nsamples = 1\nvalue = [0, 0, 0, 0, 1, 0, 0]\nclass = i", fillcolor="#3956e5"] ;
27 -> 28 ;
29 [label="gini = 0.0\nsamples = 1\nvalue = [0, 0, 0, 1, 0, 0, 0]\nclass = l", fillcolor="#39e5e2"] ;
27 -> 29 ;
30 [label="alcohol <= 9.05\ngini = 0.52\nsamples = 33\nvalue = [0, 0, 3, 4, 22, 4, 0]\nclass = i", fillcolor="#8496ef"] ;
4 -> 30 ;
31 [label="chlorides <= 0.06\ngini = 0.26\nsamples = 26\nvalue = [0, 0, 0, 0, 22, 4, 0]\nclass = i", fillcolor="#5d75ea"] ;
30 -> 31 ;
32 [label="gini = 0.0\nsamples = 19\nvalue = [0, 0, 0, 0, 19, 0, 0]\nclass = i", fillcolor="#3956e5"] ;
31 -> 32 ;
33 [label="volatile acidity <= 0.21\ngini = 0.49\nsamples = 7\nvalue = [0, 0, 0, 0, 3, 4, 0]\nclass = t", fillcolor="#eccef8"] ;
31 -> 33 ;
34 [label="gini = 0.0\nsamples = 4\nvalue = [0, 0, 0, 0, 0, 4, 0]\nclass = t", fillcolor="#b139e5"] ;
33 -> 34 ;
35 [label="gini = 0.0\nsamples = 3\nvalue = [0, 0, 0, 0, 3, 0, 0]\nclass = i", fillcolor="#3956e5"] ;
33 -> 35 ;
36 [label="citric acid <= 0.4\ngini = 0.49\nsamples = 7\nvalue = [0, 0, 3, 4, 0, 0, 0]\nclass = l", fillcolor="#cef8f8"] ;
30 -> 36 ;
37 [label="gini = 0.0\nsamples = 4\nvalue = [0, 0, 0, 4, 0, 0, 0]\nclass = l", fillcolor="#39e5e2"] ;
36 -> 37 ;
38 [label="gini = 0.0\nsamples = 3\nvalue = [0, 0, 3, 0, 0, 0, 0]\nclass = a", fillcolor="#39e54d"] ;
36 -> 38 ;
39 [label="density <= 1.0\ngini = 0.61\nsamples = 410\nvalue = [2, 8, 119, 224, 41, 16, 0]\nclass = l", fillcolor="#b8f6f5"] ;
3 -> 39 ;
40 [label="residual sugar <= 16.6\ngini = 0.6\nsamples = 396\nvalue = [2, 8, 109, 220, 41, 16, 0]\nclass = l", fillcolor="#b2f5f4"] ;
39 -> 40 ;
41 [label="density <= 1.0\ngini = 0.62\nsamples = 373\nvalue = [2, 8, 108, 198, 41, 16, 0]\nclass = l", fillcolor="#bcf6f5"] ;
40 -> 41 ;
42 [label="residual sugar <= 16.25\ngini = 0.61\nsamples = 367\nvalue = [2, 8, 108, 198, 35, 16, 0]\nclass = l", fillcolor="#baf6f5"] ;
41 -> 42 ;
43 [label="total sulfur dioxide <= 212.25\ngini = 0.61\nsamples = 362\nvalue = [2, 8, 103, 198, 35, 16, 0]\nclass = l", fillcolor="#b6f5f4"] ;
42 -> 43 ;
44 [label="residual sugar <= 13.95\ngini = 0.6\nsamples = 354\nvalue = [2, 8, 103, 195, 35, 11, 0]\nclass = l", fillcolor="#b6f5f4"] ;
43 -> 44 ;
45 [label="free sulfur dioxide <= 6.5\ngini = 0.61\nsamples = 330\nvalue = [2, 7, 101, 175, 34, 11, 0]\nclass = l", fillcolor="#bff7f6"] ;
44 -> 45 ;
46 [label="gini = 0.0\nsamples = 2\nvalue = [0, 2, 0, 0, 0, 0, 0]\nclass = u", fillcolor="#b7e539"] ;
45 -> 46 ;
47 [label="sulphates <= 0.38\ngini = 0.61\nsamples = 328\nvalue = [2, 5, 101, 175, 34, 11, 0]\nclass = l", fillcolor="#bef7f6"] ;
45 -> 47 ;
48 [label="pH <= 3.1\ngini = 0.48\nsamples = 69\nvalue = [0, 1, 16, 47, 4, 1, 0]\nclass = l", fillcolor="#8bf0ee"] ;
47 -> 48 ;
49 [label="residual sugar <= 11.0\ngini = 0.67\nsamples = 24\nvalue = [0, 1, 10, 9, 3, 1, 0]\nclass = a", fillcolor="#f2fdf3"] ;
48 -> 49 ;
50 [label="alcohol <= 10.2\ngini = 0.63\nsamples = 19\nvalue = [0, 1, 10, 5, 3, 0, 0]\nclass = a", fillcolor="#b8f6bf"] ;
49 -> 50 ;
51 [label="citric acid <= 0.86\ngini = 0.31\nsamples = 11\nvalue = [0, 0, 9, 1, 1, 0, 0]\nclass = a", fillcolor="#61ea71"] ;
50 -> 51 ;
52 [label="chlorides <= 0.04\ngini = 0.18\nsamples = 10\nvalue = [0, 0, 9, 0, 1, 0, 0]\nclass = a", fillcolor="#4fe861"] ;
51 -> 52 ;
53 [label="gini = 0.0\nsamples = 1\nvalue = [0, 0, 0, 0, 1, 0, 0]\nclass = i", fillcolor="#3956e5"] ;
52 -> 53 ;
54 [label="gini = 0.0\nsamples = 9\nvalue = [0, 0, 9, 0, 0, 0, 0]\nclass = a", fillcolor="#39e54d"] ;
52 -> 54 ;
55 [label="gini = 0.0\nsamples = 1\nvalue = [0, 0, 0, 1, 0, 0, 0]\nclass = l", fillcolor="#39e5e2"] ;
51 -> 55 ;
56 [label="citric acid <= 0.29\ngini = 0.66\nsamples = 8\nvalue = [0, 1, 1, 4, 2, 0, 0]\nclass = l", fillcolor="#bdf6f5"] ;
50 -> 56 ;
57 [label="residual sugar <= 5.4\ngini = 0.44\nsamples = 3\nvalue = [0, 0, 1, 0, 2, 0, 0]\nclass = i", fillcolor="#9caaf2"] ;
56 -> 57 ;
58 [label="gini = 0.0\nsamples = 1\nvalue = [0, 0, 1, 0, 0, 0, 0]\nclass = a", fillcolor="#39e54d"] ;
57 -> 58 ;
59 [label="gini = 0.0\nsamples = 2\nvalue = [0, 0, 0, 0, 2, 0, 0]\nclass = i", fillcolor="#3956e5"] ;
57 -> 59 ;
60 [label="chlorides <= 0.04\ngini = 0.32\nsamples = 5\nvalue = [0, 1, 0, 4, 0, 0, 0]\nclass = l", fillcolor="#6aece9"] ;
56 -> 60 ;
61 [label="gini = 0.0\nsamples = 4\nvalue = [0, 0, 0, 4, 0, 0, 0]\nclass = l", fillcolor="#39e5e2"] ;
60 -> 61 ;
62 [label="gini = 0.0\nsamples = 1\nvalue = [0, 1, 0, 0, 0, 0, 0]\nclass = u", fillcolor="#b7e539"] ;
60 -> 62 ;
63 [label="volatile acidity <= 0.18\ngini = 0.32\nsamples = 5\nvalue = [0, 0, 0, 4, 0, 1, 0]\nclass = l", fillcolor="#6aece9"] ;
49 -> 63 ;
64 [label="gini = 0.0\nsamples = 1\nvalue = [0, 0, 0, 0, 0, 1, 0]\nclass = t", fillcolor="#b139e5"] ;
63 -> 64 ;
65 [label="gini = 0.0\nsamples = 4\nvalue = [0, 0, 0, 4, 0, 0, 0]\nclass = l", fillcolor="#39e5e2"] ;
63 -> 65 ;
66 [label="citric acid <= 0.21\ngini = 0.27\nsamples = 45\nvalue = [0, 0, 6, 38, 1, 0, 0]\nclass = l", fillcolor="#5deae7"] ;
48 -> 66 ;
67 [label="gini = 0.0\nsamples = 1\nvalue = [0, 0, 0, 0, 1, 0, 0]\nclass = i", fillcolor="#3956e5"] ;
66 -> 67 ;
68 [label="citric acid <= 0.31\ngini = 0.24\nsamples = 44\nvalue = [0, 0, 6, 38, 0, 0, 0]\nclass = l", fillcolor="#58e9e7"] ;
66 -> 68 ;
69 [label="citric acid <= 0.25\ngini = 0.07\nsamples = 28\nvalue = [0, 0, 1, 27, 0, 0, 0]\nclass = l", fillcolor="#40e6e3"] ;
68 -> 69 ;
70 [label="citric acid <= 0.24\ngini = 0.32\nsamples = 5\nvalue = [0, 0, 1, 4, 0, 0, 0]\nclass = l", fillcolor="#6aece9"] ;
69 -> 70 ;
71 [label="gini = 0.0\nsamples = 4\nvalue = [0, 0, 0, 4, 0, 0, 0]\nclass = l", fillcolor="#39e5e2"] ;
70 -> 71 ;
72 [label="gini = 0.0\nsamples = 1\nvalue = [0, 0, 1, 0, 0, 0, 0]\nclass = a", fillcolor="#39e54d"] ;
70 -> 72 ;
73 [label="gini = 0.0\nsamples = 23\nvalue = [0, 0, 0, 23, 0, 0, 0]\nclass = l", fillcolor="#39e5e2"] ;
69 -> 73 ;
74 [label="total sulfur dioxide <= 123.5\ngini = 0.43\nsamples = 16\nvalue = [0, 0, 5, 11, 0, 0, 0]\nclass = l", fillcolor="#93f1ef"] ;
68 -> 74 ;
75 [label="gini = 0.0\nsamples = 7\nvalue = [0, 0, 0, 7, 0, 0, 0]\nclass = l", fillcolor="#39e5e2"] ;
74 -> 75 ;
76 [label="total sulfur dioxide <= 153.0\ngini = 0.49\nsamples = 9\nvalue = [0, 0, 5, 4, 0, 0, 0]\nclass = a", fillcolor="#d7fadb"] ;
74 -> 76 ;
77 [label="gini = 0.0\nsamples = 4\nvalue = [0, 0, 4, 0, 0, 0, 0]\nclass = a", fillcolor="#39e54d"] ;
76 -> 77 ;
78 [label="residual sugar <= 6.95\ngini = 0.32\nsamples = 5\nvalue = [0, 0, 1, 4, 0, 0, 0]\nclass = l", fillcolor="#6aece9"] ;
76 -> 78 ;
79 [label="gini = 0.0\nsamples = 4\nvalue = [0, 0, 0, 4, 0, 0, 0]\nclass = l", fillcolor="#39e5e2"] ;
78 -> 79 ;
80 [label="gini = 0.0\nsamples = 1\nvalue = [0, 0, 1, 0, 0, 0, 0]\nclass = a", fillcolor="#39e54d"] ;
78 -> 80 ;
81 [label="fixed acidity <= 6.45\ngini = 0.63\nsamples = 259\nvalue = [2, 4, 85, 128, 30, 10, 0]\nclass = l", fillcolor="#cef9f8"] ;
47 -> 81 ;
82 [label="fixed acidity <= 6.35\ngini = 0.54\nsamples = 87\nvalue = [2, 0, 39, 44, 2, 0, 0]\nclass = l", fillcolor="#eafcfc"] ;
81 -> 82 ;
83 [label="fixed acidity <= 6.15\ngini = 0.54\nsamples = 71\nvalue = [2, 0, 27, 40, 2, 0, 0]\nclass = l", fillcolor="#c4f7f6"] ;
82 -> 83 ;
84 [label="fixed acidity <= 5.95\ngini = 0.57\nsamples = 54\nvalue = [2, 0, 25, 25, 2, 0, 0]\nclass = a", fillcolor="#ffffff"] ;
83 -> 84 ;
85 [label="alcohol <= 9.85\ngini = 0.52\nsamples = 35\nvalue = [1, 0, 12, 21, 1, 0, 0]\nclass = l", fillcolor="#b2f5f4"] ;
84 -> 85 ;
86 [label="residual sugar <= 4.45\ngini = 0.58\nsamples = 21\nvalue = [1, 0, 11, 8, 1, 0, 0]\nclass = a", fillcolor="#d1f9d6"] ;
85 -> 86 ;
87 [label="fixed acidity <= 5.15\ngini = 0.2\nsamples = 9\nvalue = [0, 0, 8, 1, 0, 0, 0]\nclass = a", fillcolor="#52e863"] ;
86 -> 87 ;
88 [label="gini = 0.0\nsamples = 1\nvalue = [0, 0, 0, 1, 0, 0, 0]\nclass = l", fillcolor="#39e5e2"] ;
87 -> 88 ;
89 [label="gini = 0.0\nsamples = 8\nvalue = [0, 0, 8, 0, 0, 0, 0]\nclass = a", fillcolor="#39e54d"] ;
87 -> 89 ;
90 [label="free sulfur dioxide <= 38.5\ngini = 0.58\nsamples = 12\nvalue = [1, 0, 3, 7, 1, 0, 0]\nclass = l", fillcolor="#a7f3f2"] ;
86 -> 90 ;
91 [label="citric acid <= 0.29\ngini = 0.22\nsamples = 8\nvalue = [0, 0, 1, 7, 0, 0, 0]\nclass = l", fillcolor="#55e9e6"] ;
90 -> 91 ;
92 [label="gini = 0.0\nsamples = 6\nvalue = [0, 0, 0, 6, 0, 0, 0]\nclass = l", fillcolor="#39e5e2"] ;
91 -> 92 ;
93 [label="volatile acidity <= 0.14\ngini = 0.5\nsamples = 2\nvalue = [0, 0, 1, 1, 0, 0, 0]\nclass = a", fillcolor="#ffffff"] ;
91 -> 93 ;
94 [label="gini = 0.0\nsamples = 1\nvalue = [0, 0, 0, 1, 0, 0, 0]\nclass = l", fillcolor="#39e5e2"] ;
93 -> 94 ;
95 [label="gini = 0.0\nsamples = 1\nvalue = [0, 0, 1, 0, 0, 0, 0]\nclass = a", fillcolor="#39e54d"] ;
93 -> 95 ;
96 [label="volatile acidity <= 0.22\ngini = 0.62\nsamples = 4\nvalue = [1, 0, 2, 0, 1, 0, 0]\nclass = a", fillcolor="#bdf6c4"] ;
90 -> 96 ;
97 [label="free sulfur dioxide <= 54.0\ngini = 0.5\nsamples = 2\nvalue = [1, 0, 0, 0, 1, 0, 0]\nclass = q", fillcolor="#ffffff"] ;
96 -> 97 ;
98 [label="gini = 0.0\nsamples = 1\nvalue = [0, 0, 0, 0, 1, 0, 0]\nclass = i", fillcolor="#3956e5"] ;
97 -> 98 ;
99 [label="gini = 0.0\nsamples = 1\nvalue = [1, 0, 0, 0, 0, 0, 0]\nclass = q", fillcolor="#e58139"] ;
97 -> 99 ;
100 [label="gini = 0.0\nsamples = 2\nvalue = [0, 0, 2, 0, 0, 0, 0]\nclass = a", fillcolor="#39e54d"] ;
96 -> 100 ;
101 [label="chlorides <= 0.05\ngini = 0.13\nsamples = 14\nvalue = [0, 0, 1, 13, 0, 0, 0]\nclass = l", fillcolor="#48e7e4"] ;
85 -> 101 ;
102 [label="gini = 0.0\nsamples = 10\nvalue = [0, 0, 0, 10, 0, 0, 0]\nclass = l", fillcolor="#39e5e2"] ;
101 -> 102 ;
103 [label="alcohol <= 10.35\ngini = 0.38\nsamples = 4\nvalue = [0, 0, 1, 3, 0, 0, 0]\nclass = l", fillcolor="#7beeec"] ;
101 -> 103 ;
104 [label="gini = 0.0\nsamples = 3\nvalue = [0, 0, 0, 3, 0, 0, 0]\nclass = l", fillcolor="#39e5e2"] ;
103 -> 104 ;
105 [label="gini = 0.0\nsamples = 1\nvalue = [0, 0, 1, 0, 0, 0, 0]\nclass = a", fillcolor="#39e54d"] ;
103 -> 105 ;
106 [label="volatile acidity <= 0.2\ngini = 0.48\nsamples = 19\nvalue = [1, 0, 13, 4, 1, 0, 0]\nclass = a", fillcolor="#88ef94"] ;
84 -> 106 ;
107 [label="density <= 0.99\ngini = 0.59\nsamples = 9\nvalue = [0, 0, 4, 4, 1, 0, 0]\nclass = a", fillcolor="#ffffff"] ;
106 -> 107 ;
108 [label="citric acid <= 0.24\ngini = 0.5\nsamples = 6\nvalue = [0, 0, 1, 4, 1, 0, 0]\nclass = l", fillcolor="#88efee"] ;
107 -> 108 ;
109 [label="gini = 0.0\nsamples = 1\nvalue = [0, 0, 1, 0, 0, 0, 0]\nclass = a", fillcolor="#39e54d"] ;
108 -> 109 ;
110 [label="free sulfur dioxide <= 50.5\ngini = 0.32\nsamples = 5\nvalue = [0, 0, 0, 4, 1, 0, 0]\nclass = l", fillcolor="#6aece9"] ;
108 -> 110 ;
111 [label="gini = 0.0\nsamples = 4\nvalue = [0, 0, 0, 4, 0, 0, 0]\nclass = l", fillcolor="#39e5e2"] ;
110 -> 111 ;
112 [label="gini = 0.0\nsamples = 1\nvalue = [0, 0, 0, 0, 1, 0, 0]\nclass = i", fillcolor="#3956e5"] ;
110 -> 112 ;
113 [label="gini = 0.0\nsamples = 3\nvalue = [0, 0, 3, 0, 0, 0, 0]\nclass = a", fillcolor="#39e54d"] ;
107 -> 113 ;
114 [label="total sulfur dioxide <= 168.0\ngini = 0.18\nsamples = 10\nvalue = [1, 0, 9, 0, 0, 0, 0]\nclass = a", fillcolor="#4fe861"] ;
106 -> 114 ;
115 [label="gini = 0.0\nsamples = 8\nvalue = [0, 0, 8, 0, 0, 0, 0]\nclass = a", fillcolor="#39e54d"] ;
114 -> 115 ;
116 [label="residual sugar <= 7.4\ngini = 0.5\nsamples = 2\nvalue = [1, 0, 1, 0, 0, 0, 0]\nclass = q", fillcolor="#ffffff"] ;
114 -> 116 ;
117 [label="gini = 0.0\nsamples = 1\nvalue = [0, 0, 1, 0, 0, 0, 0]\nclass = a", fillcolor="#39e54d"] ;
116 -> 117 ;
118 [label="gini = 0.0\nsamples = 1\nvalue = [1, 0, 0, 0, 0, 0, 0]\nclass = q", fillcolor="#e58139"] ;
116 -> 118 ;
119 [label="density <= 1.0\ngini = 0.21\nsamples = 17\nvalue = [0, 0, 2, 15, 0, 0, 0]\nclass = l", fillcolor="#53e8e6"] ;
83 -> 119 ;
120 [label="total sulfur dioxide <= 153.5\ngini = 0.12\nsamples = 16\nvalue = [0, 0, 1, 15, 0, 0, 0]\nclass = l", fillcolor="#46e7e4"] ;
119 -> 120 ;
121 [label="gini = 0.0\nsamples = 14\nvalue = [0, 0, 0, 14, 0, 0, 0]\nclass = l", fillcolor="#39e5e2"] ;
120 -> 121 ;
122 [label="total sulfur dioxide <= 172.0\ngini = 0.5\nsamples = 2\nvalue = [0, 0, 1, 1, 0, 0, 0]\nclass = a", fillcolor="#ffffff"] ;
120 -> 122 ;
123 [label="gini = 0.0\nsamples = 1\nvalue = [0, 0, 1, 0, 0, 0, 0]\nclass = a", fillcolor="#39e54d"] ;
122 -> 123 ;
124 [label="gini = 0.0\nsamples = 1\nvalue = [0, 0, 0, 1, 0, 0, 0]\nclass = l", fillcolor="#39e5e2"] ;
122 -> 124 ;
125 [label="gini = 0.0\nsamples = 1\nvalue = [0, 0, 1, 0, 0, 0, 0]\nclass = a", fillcolor="#39e54d"] ;
119 -> 125 ;
126 [label="total sulfur dioxide <= 157.5\ngini = 0.38\nsamples = 16\nvalue = [0, 0, 12, 4, 0, 0, 0]\nclass = a", fillcolor="#7bee88"] ;
82 -> 126 ;
127 [label="free sulfur dioxide <= 17.0\ngini = 0.15\nsamples = 12\nvalue = [0, 0, 11, 1, 0, 0, 0]\nclass = a", fillcolor="#4be75d"] ;
126 -> 127 ;
128 [label="gini = 0.0\nsamples = 1\nvalue = [0, 0, 0, 1, 0, 0, 0]\nclass = l", fillcolor="#39e5e2"] ;
127 -> 128 ;
129 [label="gini = 0.0\nsamples = 11\nvalue = [0, 0, 11, 0, 0, 0, 0]\nclass = a", fillcolor="#39e54d"] ;
127 -> 129 ;
130 [label="total sulfur dioxide <= 171.5\ngini = 0.38\nsamples = 4\nvalue = [0, 0, 1, 3, 0, 0, 0]\nclass = l", fillcolor="#7beeec"] ;
126 -> 130 ;
131 [label="gini = 0.0\nsamples = 3\nvalue = [0, 0, 0, 3, 0, 0, 0]\nclass = l", fillcolor="#39e5e2"] ;
130 -> 131 ;
132 [label="gini = 0.0\nsamples = 1\nvalue = [0, 0, 1, 0, 0, 0, 0]\nclass = a", fillcolor="#39e54d"] ;
130 -> 132 ;
133 [label="alcohol <= 10.55\ngini = 0.66\nsamples = 172\nvalue = [0, 4, 46, 84, 28, 10, 0]\nclass = l", fillcolor="#c3f7f6"] ;
81 -> 133 ;
134 [label="total sulfur dioxide <= 184.0\ngini = 0.66\nsamples = 149\nvalue = [0, 4, 46, 70, 19, 10, 0]\nclass = l", fillcolor="#d1f9f8"] ;
133 -> 134 ;
135 [label="pH <= 3.0\ngini = 0.68\nsamples = 139\nvalue = [0, 4, 46, 61, 18, 10, 0]\nclass = l", fillcolor="#dffbfa"] ;
134 -> 135 ;
136 [label="gini = 0.0\nsamples = 4\nvalue = [0, 0, 4, 0, 0, 0, 0]\nclass = a", fillcolor="#39e54d"] ;
135 -> 136 ;
137 [label="sulphates <= 0.38\ngini = 0.67\nsamples = 135\nvalue = [0, 4, 42, 61, 18, 10, 0]\nclass = l", fillcolor="#d7faf9"] ;
135 -> 137 ;
138 [label="density <= 0.99\ngini = 0.55\nsamples = 15\nvalue = [0, 0, 1, 8, 0, 6, 0]\nclass = l", fillcolor="#d3f9f9"] ;
137 -> 138 ;
139 [label="gini = 0.0\nsamples = 6\nvalue = [0, 0, 0, 6, 0, 0, 0]\nclass = l", fillcolor="#39e5e2"] ;
138 -> 139 ;
140 [label="free sulfur dioxide <= 44.0\ngini = 0.49\nsamples = 9\nvalue = [0, 0, 1, 2, 0, 6, 0]\nclass = t", fillcolor="#d28ef0"] ;
138 -> 140 ;
141 [label="density <= 1.0\ngini = 0.24\nsamples = 7\nvalue = [0, 0, 0, 1, 0, 6, 0]\nclass = t", fillcolor="#be5ae9"] ;
140 -> 141 ;
142 [label="gini = 0.0\nsamples = 6\nvalue = [0, 0, 0, 0, 0, 6, 0]\nclass = t", fillcolor="#b139e5"] ;
141 -> 142 ;
143 [label="gini = 0.0\nsamples = 1\nvalue = [0, 0, 0, 1, 0, 0, 0]\nclass = l", fillcolor="#39e5e2"] ;
141 -> 143 ;
144 [label="density <= 1.0\ngini = 0.5\nsamples = 2\nvalue = [0, 0, 1, 1, 0, 0, 0]\nclass = a", fillcolor="#ffffff"] ;
140 -> 144 ;
145 [label="gini = 0.0\nsamples = 1\nvalue = [0, 0, 0, 1, 0, 0, 0]\nclass = l", fillcolor="#39e5e2"] ;
144 -> 145 ;
146 [label="gini = 0.0\nsamples = 1\nvalue = [0, 0, 1, 0, 0, 0, 0]\nclass = a", fillcolor="#39e54d"] ;
144 -> 146 ;
147 [label="fixed acidity <= 8.05\ngini = 0.66\nsamples = 120\nvalue = [0, 4, 41, 53, 18, 4, 0]\nclass = l", fillcolor="#e1fbfb"] ;
137 -> 147 ;
148 [label="total sulfur dioxide <= 93.0\ngini = 0.67\nsamples = 108\nvalue = [0, 3, 41, 43, 17, 4, 0]\nclass = l", fillcolor="#f9fefe"] ;
147 -> 148 ;
149 [label="fixed acidity <= 7.9\ngini = 0.24\nsamples = 7\nvalue = [0, 0, 6, 0, 1, 0, 0]\nclass = a", fillcolor="#5ae96b"] ;
148 -> 149 ;
150 [label="gini = 0.0\nsamples = 6\nvalue = [0, 0, 6, 0, 0, 0, 0]\nclass = a", fillcolor="#39e54d"] ;
149 -> 150 ;
151 [label="gini = 0.0\nsamples = 1\nvalue = [0, 0, 0, 0, 1, 0, 0]\nclass = i", fillcolor="#3956e5"] ;
149 -> 151 ;
152 [label="citric acid <= 0.34\ngini = 0.67\nsamples = 101\nvalue = [0, 3, 35, 43, 16, 4, 0]\nclass = l", fillcolor="#e7fcfb"] ;
148 -> 152 ;
153 [label="total sulfur dioxide <= 178.5\ngini = 0.64\nsamples = 58\nvalue = [0, 1, 14, 30, 10, 3, 0]\nclass = l", fillcolor="#b7f6f4"] ;
152 -> 153 ;
154 [label="free sulfur dioxide <= 59.0\ngini = 0.61\nsamples = 53\nvalue = [0, 1, 10, 30, 9, 3, 0]\nclass = l", fillcolor="#a3f3f2"] ;
153 -> 154 ;
155 [label="free sulfur dioxide <= 15.0\ngini = 0.58\nsamples = 50\nvalue = [0, 1, 7, 30, 9, 3, 0]\nclass = l", fillcolor="#9af2f0"] ;
154 -> 155 ;
156 [label="gini = 0.0\nsamples = 2\nvalue = [0, 0, 0, 0, 0, 2, 0]\nclass = t", fillcolor="#b139e5"] ;
155 -> 156 ;
157 [label="citric acid <= 0.2\ngini = 0.55\nsamples = 48\nvalue = [0, 1, 7, 30, 9, 1, 0]\nclass = l", fillcolor="#94f1ef"] ;
155 -> 157 ;
158 [label="gini = 0.0\nsamples = 2\nvalue = [0, 0, 2, 0, 0, 0, 0]\nclass = a", fillcolor="#39e54d"] ;
157 -> 158 ;
159 [label="sulphates <= 0.44\ngini = 0.52\nsamples = 46\nvalue = [0, 1, 5, 30, 9, 1, 0]\nclass = l", fillcolor="#8ff0ef"] ;
157 -> 159 ;
160 [label="citric acid <= 0.22\ngini = 0.26\nsamples = 20\nvalue = [0, 0, 2, 17, 1, 0, 0]\nclass = l", fillcolor="#5ae9e7"] ;
159 -> 160 ;
161 [label="gini = 0.0\nsamples = 1\nvalue = [0, 0, 1, 0, 0, 0, 0]\nclass = a", fillcolor="#39e54d"] ;
160 -> 161 ;
162 [label="chlorides <= 0.07\ngini = 0.19\nsamples = 19\nvalue = [0, 0, 1, 17, 1, 0, 0]\nclass = l", fillcolor="#4fe8e5"] ;
160 -> 162 ;
163 [label="chlorides <= 0.06\ngini = 0.1\nsamples = 18\nvalue = [0, 0, 0, 17, 1, 0, 0]\nclass = l", fillcolor="#45e7e4"] ;
162 -> 163 ;
164 [label="gini = 0.0\nsamples = 16\nvalue = [0, 0, 0, 16, 0, 0, 0]\nclass = l", fillcolor="#39e5e2"] ;
163 -> 164 ;
165 [label="volatile acidity <= 0.14\ngini = 0.5\nsamples = 2\nvalue = [0, 0, 0, 1, 1, 0, 0]\nclass = l", fillcolor="#ffffff"] ;
163 -> 165 ;
166 [label="gini = 0.0\nsamples = 1\nvalue = [0, 0, 0, 1, 0, 0, 0]\nclass = l", fillcolor="#39e5e2"] ;
165 -> 166 ;
167 [label="gini = 0.0\nsamples = 1\nvalue = [0, 0, 0, 0, 1, 0, 0]\nclass = i", fillcolor="#3956e5"] ;
165 -> 167 ;
168 [label="gini = 0.0\nsamples = 1\nvalue = [0, 0, 1, 0, 0, 0, 0]\nclass = a", fillcolor="#39e54d"] ;
162 -> 168 ;
169 [label="pH <= 3.16\ngini = 0.64\nsamples = 26\nvalue = [0, 1, 3, 13, 8, 1, 0]\nclass = l", fillcolor="#c8f8f7"] ;
159 -> 169 ;
170 [label="residual sugar <= 10.25\ngini = 0.31\nsamples = 11\nvalue = [0, 0, 0, 9, 1, 1, 0]\nclass = l", fillcolor="#61eae8"] ;
169 -> 170 ;
171 [label="pH <= 3.02\ngini = 0.18\nsamples = 10\nvalue = [0, 0, 0, 9, 0, 1, 0]\nclass = l", fillcolor="#4fe8e5"] ;
170 -> 171 ;
172 [label="gini = 0.0\nsamples = 1\nvalue = [0, 0, 0, 0, 0, 1, 0]\nclass = t", fillcolor="#b139e5"] ;
171 -> 172 ;
173 [label="gini = 0.0\nsamples = 9\nvalue = [0, 0, 0, 9, 0, 0, 0]\nclass = l", fillcolor="#39e5e2"] ;
171 -> 173 ;
174 [label="gini = 0.0\nsamples = 1\nvalue = [0, 0, 0, 0, 1, 0, 0]\nclass = i", fillcolor="#3956e5"] ;
170 -> 174 ;
175 [label="pH <= 3.37\ngini = 0.67\nsamples = 15\nvalue = [0, 1, 3, 4, 7, 0, 0]\nclass = i", fillcolor="#c9d1f8"] ;
169 -> 175 ;
176 [label="alcohol <= 10.3\ngini = 0.24\nsamples = 7\nvalue = [0, 0, 1, 0, 6, 0, 0]\nclass = i", fillcolor="#5a72e9"] ;
175 -> 176 ;
177 [label="gini = 0.0\nsamples = 6\nvalue = [0, 0, 0, 0, 6, 0, 0]\nclass = i", fillcolor="#3956e5"] ;
176 -> 177 ;
178 [label="gini = 0.0\nsamples = 1\nvalue = [0, 0, 1, 0, 0, 0, 0]\nclass = a", fillcolor="#39e54d"] ;
176 -> 178 ;
179 [label="free sulfur dioxide <= 27.0\ngini = 0.66\nsamples = 8\nvalue = [0, 1, 2, 4, 1, 0, 0]\nclass = l", fillcolor="#bdf6f5"] ;
175 -> 179 ;
180 [label="gini = 0.0\nsamples = 2\nvalue = [0, 0, 2, 0, 0, 0, 0]\nclass = a", fillcolor="#39e54d"] ;
179 -> 180 ;
181 [label="sulphates <= 0.44\ngini = 0.5\nsamples = 6\nvalue = [0, 1, 0, 4, 1, 0, 0]\nclass = l", fillcolor="#88efee"] ;
179 -> 181 ;
182 [label="volatile acidity <= 0.18\ngini = 0.5\nsamples = 2\nvalue = [0, 1, 0, 0, 1, 0, 0]\nclass = u", fillcolor="#ffffff"] ;
181 -> 182 ;
183 [label="gini = 0.0\nsamples = 1\nvalue = [0, 1, 0, 0, 0, 0, 0]\nclass = u", fillcolor="#b7e539"] ;
182 -> 183 ;
184 [label="gini = 0.0\nsamples = 1\nvalue = [0, 0, 0, 0, 1, 0, 0]\nclass = i", fillcolor="#3956e5"] ;
182 -> 184 ;
185 [label="gini = 0.0\nsamples = 4\nvalue = [0, 0, 0, 4, 0, 0, 0]\nclass = l", fillcolor="#39e5e2"] ;
181 -> 185 ;
186 [label="gini = 0.0\nsamples = 3\nvalue = [0, 0, 3, 0, 0, 0, 0]\nclass = a", fillcolor="#39e54d"] ;
154 -> 186 ;
187 [label="free sulfur dioxide <= 38.5\ngini = 0.32\nsamples = 5\nvalue = [0, 0, 4, 0, 1, 0, 0]\nclass = a", fillcolor="#6aec79"] ;
153 -> 187 ;
188 [label="gini = 0.0\nsamples = 1\nvalue = [0, 0, 0, 0, 1, 0, 0]\nclass = i", fillcolor="#3956e5"] ;
187 -> 188 ;
189 [label="gini = 0.0\nsamples = 4\nvalue = [0, 0, 4, 0, 0, 0, 0]\nclass = a", fillcolor="#39e54d"] ;
187 -> 189 ;
190 [label="fixed acidity <= 6.75\ngini = 0.65\nsamples = 43\nvalue = [0, 2, 21, 13, 6, 1, 0]\nclass = a", fillcolor="#caf8d0"] ;
152 -> 190 ;
191 [label="sulphates <= 0.43\ngini = 0.58\nsamples = 10\nvalue = [0, 0, 1, 5, 4, 0, 0]\nclass = l", fillcolor="#defbfa"] ;
190 -> 191 ;
192 [label="sulphates <= 0.41\ngini = 0.32\nsamples = 5\nvalue = [0, 0, 1, 0, 4, 0, 0]\nclass = i", fillcolor="#6a80ec"] ;
191 -> 192 ;
193 [label="gini = 0.0\nsamples = 4\nvalue = [0, 0, 0, 0, 4, 0, 0]\nclass = i", fillcolor="#3956e5"] ;
192 -> 193 ;
194 [label="gini = 0.0\nsamples = 1\nvalue = [0, 0, 1, 0, 0, 0, 0]\nclass = a", fillcolor="#39e54d"] ;
192 -> 194 ;
195 [label="gini = 0.0\nsamples = 5\nvalue = [0, 0, 0, 5, 0, 0, 0]\nclass = l", fillcolor="#39e5e2"] ;
191 -> 195 ;
196 [label="total sulfur dioxide <= 100.0\ngini = 0.57\nsamples = 33\nvalue = [0, 2, 20, 8, 2, 1, 0]\nclass = a", fillcolor="#a0f3aa"] ;
190 -> 196 ;
197 [label="free sulfur dioxide <= 22.0\ngini = 0.72\nsamples = 6\nvalue = [0, 0, 1, 2, 2, 1, 0]\nclass = l", fillcolor="#ffffff"] ;
196 -> 197 ;
198 [label="gini = 0.0\nsamples = 2\nvalue = [0, 0, 0, 0, 2, 0, 0]\nclass = i", fillcolor="#3956e5"] ;
197 -> 198 ;
199 [label="density <= 0.99\ngini = 0.62\nsamples = 4\nvalue = [0, 0, 1, 2, 0, 1, 0]\nclass = l", fillcolor="#bdf6f5"] ;
197 -> 199 ;
200 [label="sulphates <= 0.42\ngini = 0.5\nsamples = 2\nvalue = [0, 0, 1, 0, 0, 1, 0]\nclass = a", fillcolor="#ffffff"] ;
199 -> 200 ;
201 [label="gini = 0.0\nsamples = 1\nvalue = [0, 0, 0, 0, 0, 1, 0]\nclass = t", fillcolor="#b139e5"] ;
200 -> 201 ;
202 [label="gini = 0.0\nsamples = 1\nvalue = [0, 0, 1, 0, 0, 0, 0]\nclass = a", fillcolor="#39e54d"] ;
200 -> 202 ;
203 [label="gini = 0.0\nsamples = 2\nvalue = [0, 0, 0, 2, 0, 0, 0]\nclass = l", fillcolor="#39e5e2"] ;
199 -> 203 ;
204 [label="residual sugar <= 1.55\ngini = 0.45\nsamples = 27\nvalue = [0, 2, 19, 6, 0, 0, 0]\nclass = a", fillcolor="#84ef91"] ;
196 -> 204 ;
205 [label="free sulfur dioxide <= 16.0\ngini = 0.44\nsamples = 3\nvalue = [0, 1, 0, 2, 0, 0, 0]\nclass = l", fillcolor="#9cf2f0"] ;
204 -> 205 ;
206 [label="gini = 0.0\nsamples = 1\nvalue = [0, 1, 0, 0, 0, 0, 0]\nclass = u", fillcolor="#b7e539"] ;
205 -> 206 ;
207 [label="gini = 0.0\nsamples = 2\nvalue = [0, 0, 0, 2, 0, 0, 0]\nclass = l", fillcolor="#39e5e2"] ;
205 -> 207 ;
208 [label="free sulfur dioxide <= 57.0\ngini = 0.34\nsamples = 24\nvalue = [0, 1, 19, 4, 0, 0, 0]\nclass = a", fillcolor="#6aec7a"] ;
204 -> 208 ;
209 [label="citric acid <= 0.73\ngini = 0.24\nsamples = 22\nvalue = [0, 1, 19, 2, 0, 0, 0]\nclass = a", fillcolor="#57e968"] ;
208 -> 209 ;
210 [label="density <= 1.0\ngini = 0.18\nsamples = 21\nvalue = [0, 1, 19, 1, 0, 0, 0]\nclass = a", fillcolor="#4de85f"] ;
209 -> 210 ;
211 [label="fixed acidity <= 7.95\ngini = 0.09\nsamples = 20\nvalue = [0, 1, 19, 0, 0, 0, 0]\nclass = a", fillcolor="#43e656"] ;
210 -> 211 ;
212 [label="gini = 0.0\nsamples = 18\nvalue = [0, 0, 18, 0, 0, 0, 0]\nclass = a", fillcolor="#39e54d"] ;
211 -> 212 ;
213 [label="pH <= 3.27\ngini = 0.5\nsamples = 2\nvalue = [0, 1, 1, 0, 0, 0, 0]\nclass = u", fillcolor="#ffffff"] ;
211 -> 213 ;
214 [label="gini = 0.0\nsamples = 1\nvalue = [0, 0, 1, 0, 0, 0, 0]\nclass = a", fillcolor="#39e54d"] ;
213 -> 214 ;
215 [label="gini = 0.0\nsamples = 1\nvalue = [0, 1, 0, 0, 0, 0, 0]\nclass = u", fillcolor="#b7e539"] ;
213 -> 215 ;
216 [label="gini = 0.0\nsamples = 1\nvalue = [0, 0, 0, 1, 0, 0, 0]\nclass = l", fillcolor="#39e5e2"] ;
210 -> 216 ;
217 [label="gini = 0.0\nsamples = 1\nvalue = [0, 0, 0, 1, 0, 0, 0]\nclass = l", fillcolor="#39e5e2"] ;
209 -> 217 ;
218 [label="gini = 0.0\nsamples = 2\nvalue = [0, 0, 0, 2, 0, 0, 0]\nclass = l", fillcolor="#39e5e2"] ;
208 -> 218 ;
219 [label="citric acid <= 0.31\ngini = 0.29\nsamples = 12\nvalue = [0, 1, 0, 10, 1, 0, 0]\nclass = l", fillcolor="#5deae7"] ;
147 -> 219 ;
220 [label="gini = 0.0\nsamples = 1\nvalue = [0, 0, 0, 0, 1, 0, 0]\nclass = i", fillcolor="#3956e5"] ;
219 -> 220 ;
221 [label="alcohol <= 9.5\ngini = 0.17\nsamples = 11\nvalue = [0, 1, 0, 10, 0, 0, 0]\nclass = l", fillcolor="#4de8e5"] ;
219 -> 221 ;
222 [label="gini = 0.0\nsamples = 1\nvalue = [0, 1, 0, 0, 0, 0, 0]\nclass = u", fillcolor="#b7e539"] ;
221 -> 222 ;
223 [label="gini = 0.0\nsamples = 10\nvalue = [0, 0, 0, 10, 0, 0, 0]\nclass = l", fillcolor="#39e5e2"] ;
221 -> 223 ;
224 [label="pH <= 3.12\ngini = 0.18\nsamples = 10\nvalue = [0, 0, 0, 9, 1, 0, 0]\nclass = l", fillcolor="#4fe8e5"] ;
134 -> 224 ;
225 [label="gini = 0.0\nsamples = 1\nvalue = [0, 0, 0, 0, 1, 0, 0]\nclass = i", fillcolor="#3956e5"] ;
224 -> 225 ;
226 [label="gini = 0.0\nsamples = 9\nvalue = [0, 0, 0, 9, 0, 0, 0]\nclass = l", fillcolor="#39e5e2"] ;
224 -> 226 ;
227 [label="residual sugar <= 1.35\ngini = 0.48\nsamples = 23\nvalue = [0, 0, 0, 14, 9, 0, 0]\nclass = l", fillcolor="#b8f6f5"] ;
133 -> 227 ;
228 [label="gini = 0.0\nsamples = 8\nvalue = [0, 0, 0, 8, 0, 0, 0]\nclass = l", fillcolor="#39e5e2"] ;
227 -> 228 ;
229 [label="chlorides <= 0.05\ngini = 0.48\nsamples = 15\nvalue = [0, 0, 0, 6, 9, 0, 0]\nclass = i", fillcolor="#bdc7f6"] ;
227 -> 229 ;
230 [label="gini = 0.0\nsamples = 7\nvalue = [0, 0, 0, 0, 7, 0, 0]\nclass = i", fillcolor="#3956e5"] ;
229 -> 230 ;
231 [label="free sulfur dioxide <= 36.5\ngini = 0.38\nsamples = 8\nvalue = [0, 0, 0, 6, 2, 0, 0]\nclass = l", fillcolor="#7beeec"] ;
229 -> 231 ;
232 [label="gini = 0.0\nsamples = 5\nvalue = [0, 0, 0, 5, 0, 0, 0]\nclass = l", fillcolor="#39e5e2"] ;
231 -> 232 ;
233 [label="citric acid <= 0.45\ngini = 0.44\nsamples = 3\nvalue = [0, 0, 0, 1, 2, 0, 0]\nclass = i", fillcolor="#9caaf2"] ;
231 -> 233 ;
234 [label="gini = 0.0\nsamples = 2\nvalue = [0, 0, 0, 0, 2, 0, 0]\nclass = i", fillcolor="#3956e5"] ;
233 -> 234 ;
235 [label="gini = 0.0\nsamples = 1\nvalue = [0, 0, 0, 1, 0, 0, 0]\nclass = l", fillcolor="#39e5e2"] ;
233 -> 235 ;
236 [label="pH <= 3.02\ngini = 0.3\nsamples = 24\nvalue = [0, 1, 2, 20, 1, 0, 0]\nclass = l", fillcolor="#5deae7"] ;
44 -> 236 ;
237 [label="gini = 0.0\nsamples = 1\nvalue = [0, 0, 1, 0, 0, 0, 0]\nclass = a", fillcolor="#39e54d"] ;
236 -> 237 ;
238 [label="chlorides <= 0.06\ngini = 0.24\nsamples = 23\nvalue = [0, 1, 1, 20, 1, 0, 0]\nclass = l", fillcolor="#54e9e6"] ;
236 -> 238 ;
239 [label="citric acid <= 0.25\ngini = 0.1\nsamples = 19\nvalue = [0, 0, 1, 18, 0, 0, 0]\nclass = l", fillcolor="#44e6e4"] ;
238 -> 239 ;
240 [label="sulphates <= 0.42\ngini = 0.44\nsamples = 3\nvalue = [0, 0, 1, 2, 0, 0, 0]\nclass = l", fillcolor="#9cf2f0"] ;
239 -> 240 ;
241 [label="gini = 0.0\nsamples = 1\nvalue = [0, 0, 1, 0, 0, 0, 0]\nclass = a", fillcolor="#39e54d"] ;
240 -> 241 ;
242 [label="gini = 0.0\nsamples = 2\nvalue = [0, 0, 0, 2, 0, 0, 0]\nclass = l", fillcolor="#39e5e2"] ;
240 -> 242 ;
243 [label="gini = 0.0\nsamples = 16\nvalue = [0, 0, 0, 16, 0, 0, 0]\nclass = l", fillcolor="#39e5e2"] ;
239 -> 243 ;
244 [label="alcohol <= 8.95\ngini = 0.62\nsamples = 4\nvalue = [0, 1, 0, 2, 1, 0, 0]\nclass = l", fillcolor="#bdf6f5"] ;
238 -> 244 ;
245 [label="gini = 0.0\nsamples = 2\nvalue = [0, 0, 0, 2, 0, 0, 0]\nclass = l", fillcolor="#39e5e2"] ;
244 -> 245 ;
246 [label="pH <= 3.1\ngini = 0.5\nsamples = 2\nvalue = [0, 1, 0, 0, 1, 0, 0]\nclass = u", fillcolor="#ffffff"] ;
244 -> 246 ;
247 [label="gini = 0.0\nsamples = 1\nvalue = [0, 1, 0, 0, 0, 0, 0]\nclass = u", fillcolor="#b7e539"] ;
246 -> 247 ;
248 [label="gini = 0.0\nsamples = 1\nvalue = [0, 0, 0, 0, 1, 0, 0]\nclass = i", fillcolor="#3956e5"] ;
246 -> 248 ;
249 [label="residual sugar <= 10.65\ngini = 0.47\nsamples = 8\nvalue = [0, 0, 0, 3, 0, 5, 0]\nclass = t", fillcolor="#e0b0f5"] ;
43 -> 249 ;
250 [label="gini = 0.0\nsamples = 3\nvalue = [0, 0, 0, 3, 0, 0, 0]\nclass = l", fillcolor="#39e5e2"] ;
249 -> 250 ;
251 [label="gini = 0.0\nsamples = 5\nvalue = [0, 0, 0, 0, 0, 5, 0]\nclass = t", fillcolor="#b139e5"] ;
249 -> 251 ;
252 [label="gini = 0.0\nsamples = 5\nvalue = [0, 0, 5, 0, 0, 0, 0]\nclass = a", fillcolor="#39e54d"] ;
42 -> 252 ;
253 [label="gini = 0.0\nsamples = 6\nvalue = [0, 0, 0, 0, 6, 0, 0]\nclass = i", fillcolor="#3956e5"] ;
41 -> 253 ;
254 [label="fixed acidity <= 7.5\ngini = 0.08\nsamples = 23\nvalue = [0, 0, 1, 22, 0, 0, 0]\nclass = l", fillcolor="#42e6e3"] ;
40 -> 254 ;
255 [label="gini = 0.0\nsamples = 22\nvalue = [0, 0, 0, 22, 0, 0, 0]\nclass = l", fillcolor="#39e5e2"] ;
254 -> 255 ;
256 [label="gini = 0.0\nsamples = 1\nvalue = [0, 0, 1, 0, 0, 0, 0]\nclass = a", fillcolor="#39e54d"] ;
254 -> 256 ;
257 [label="volatile acidity <= 0.2\ngini = 0.41\nsamples = 14\nvalue = [0, 0, 10, 4, 0, 0, 0]\nclass = a", fillcolor="#88ef94"] ;
39 -> 257 ;
258 [label="gini = 0.0\nsamples = 4\nvalue = [0, 0, 0, 4, 0, 0, 0]\nclass = l", fillcolor="#39e5e2"] ;
257 -> 258 ;
259 [label="gini = 0.0\nsamples = 10\nvalue = [0, 0, 10, 0, 0, 0, 0]\nclass = a", fillcolor="#39e54d"] ;
257 -> 259 ;
260 [label="sulphates <= 0.91\ngini = 0.53\nsamples = 385\nvalue = [0, 6, 59, 246, 71, 3, 0]\nclass = l", fillcolor="#91f1ef"] ;
2 -> 260 ;
261 [label="free sulfur dioxide <= 19.5\ngini = 0.53\nsamples = 380\nvalue = [0, 6, 59, 246, 66, 3, 0]\nclass = l", fillcolor="#8df0ee"] ;
260 -> 261 ;
262 [label="fixed acidity <= 6.7\ngini = 0.67\nsamples = 49\nvalue = [0, 3, 16, 21, 9, 0, 0]\nclass = l", fillcolor="#e1fbfb"] ;
261 -> 262 ;
263 [label="fixed acidity <= 5.55\ngini = 0.28\nsamples = 19\nvalue = [0, 0, 1, 16, 2, 0, 0]\nclass = l", fillcolor="#5ceae7"] ;
262 -> 263 ;
264 [label="chlorides <= 0.04\ngini = 0.5\nsamples = 2\nvalue = [0, 0, 1, 0, 1, 0, 0]\nclass = a", fillcolor="#ffffff"] ;
263 -> 264 ;
265 [label="gini = 0.0\nsamples = 1\nvalue = [0, 0, 1, 0, 0, 0, 0]\nclass = a", fillcolor="#39e54d"] ;
264 -> 265 ;
266 [label="gini = 0.0\nsamples = 1\nvalue = [0, 0, 0, 0, 1, 0, 0]\nclass = i", fillcolor="#3956e5"] ;
264 -> 266 ;
267 [label="alcohol <= 10.35\ngini = 0.11\nsamples = 17\nvalue = [0, 0, 0, 16, 1, 0, 0]\nclass = l", fillcolor="#45e7e4"] ;
263 -> 267 ;
268 [label="gini = 0.0\nsamples = 16\nvalue = [0, 0, 0, 16, 0, 0, 0]\nclass = l", fillcolor="#39e5e2"] ;
267 -> 268 ;
269 [label="gini = 0.0\nsamples = 1\nvalue = [0, 0, 0, 0, 1, 0, 0]\nclass = i", fillcolor="#3956e5"] ;
267 -> 269 ;
270 [label="fixed acidity <= 6.85\ngini = 0.66\nsamples = 30\nvalue = [0, 3, 15, 5, 7, 0, 0]\nclass = a", fillcolor="#baf6c1"] ;
262 -> 270 ;
271 [label="gini = 0.0\nsamples = 6\nvalue = [0, 0, 0, 0, 6, 0, 0]\nclass = i", fillcolor="#3956e5"] ;
270 -> 271 ;
272 [label="citric acid <= 0.39\ngini = 0.55\nsamples = 24\nvalue = [0, 3, 15, 5, 1, 0, 0]\nclass = a", fillcolor="#97f1a1"] ;
270 -> 272 ;
273 [label="gini = 0.0\nsamples = 12\nvalue = [0, 0, 12, 0, 0, 0, 0]\nclass = a", fillcolor="#39e54d"] ;
272 -> 273 ;
274 [label="pH <= 3.15\ngini = 0.69\nsamples = 12\nvalue = [0, 3, 3, 5, 1, 0, 0]\nclass = l", fillcolor="#d3f9f9"] ;
272 -> 274 ;
275 [label="total sulfur dioxide <= 99.0\ngini = 0.47\nsamples = 8\nvalue = [0, 3, 0, 5, 0, 0, 0]\nclass = l", fillcolor="#b0f5f3"] ;
274 -> 275 ;
276 [label="gini = 0.0\nsamples = 4\nvalue = [0, 0, 0, 4, 0, 0, 0]\nclass = l", fillcolor="#39e5e2"] ;
275 -> 276 ;
277 [label="volatile acidity <= 0.2\ngini = 0.38\nsamples = 4\nvalue = [0, 3, 0, 1, 0, 0, 0]\nclass = u", fillcolor="#cfee7b"] ;
275 -> 277 ;
278 [label="gini = 0.0\nsamples = 3\nvalue = [0, 3, 0, 0, 0, 0, 0]\nclass = u", fillcolor="#b7e539"] ;
277 -> 278 ;
279 [label="gini = 0.0\nsamples = 1\nvalue = [0, 0, 0, 1, 0, 0, 0]\nclass = l", fillcolor="#39e5e2"] ;
277 -> 279 ;
280 [label="volatile acidity <= 0.17\ngini = 0.38\nsamples = 4\nvalue = [0, 0, 3, 0, 1, 0, 0]\nclass = a", fillcolor="#7bee88"] ;
274 -> 280 ;
281 [label="gini = 0.0\nsamples = 1\nvalue = [0, 0, 0, 0, 1, 0, 0]\nclass = i", fillcolor="#3956e5"] ;
280 -> 281 ;
282 [label="gini = 0.0\nsamples = 3\nvalue = [0, 0, 3, 0, 0, 0, 0]\nclass = a", fillcolor="#39e54d"] ;
280 -> 282 ;
283 [label="density <= 0.99\ngini = 0.49\nsamples = 331\nvalue = [0, 3, 43, 225, 57, 3, 0]\nclass = l", fillcolor="#86efed"] ;
261 -> 283 ;
284 [label="alcohol <= 10.65\ngini = 0.59\nsamples = 110\nvalue = [0, 1, 14, 61, 32, 2, 0]\nclass = l", fillcolor="#b5f5f4"] ;
283 -> 284 ;
285 [label="chlorides <= 0.03\ngini = 0.56\nsamples = 100\nvalue = [0, 1, 14, 60, 25, 0, 0]\nclass = l", fillcolor="#a3f3f1"] ;
284 -> 285 ;
286 [label="gini = 0.0\nsamples = 10\nvalue = [0, 0, 0, 10, 0, 0, 0]\nclass = l", fillcolor="#39e5e2"] ;
285 -> 286 ;
287 [label="sulphates <= 0.56\ngini = 0.59\nsamples = 90\nvalue = [0, 1, 14, 50, 25, 0, 0]\nclass = l", fillcolor="#b3f5f4"] ;
285 -> 287 ;
288 [label="citric acid <= 0.48\ngini = 0.51\nsamples = 44\nvalue = [0, 0, 9, 29, 6, 0, 0]\nclass = l", fillcolor="#8ef0ee"] ;
287 -> 288 ;
289 [label="residual sugar <= 1.45\ngini = 0.45\nsamples = 41\nvalue = [0, 0, 8, 29, 4, 0, 0]\nclass = l", fillcolor="#81eeed"] ;
288 -> 289 ;
290 [label="density <= 0.99\ngini = 0.6\nsamples = 20\nvalue = [0, 0, 7, 10, 3, 0, 0]\nclass = l", fillcolor="#d1f9f8"] ;
289 -> 290 ;
291 [label="residual sugar <= 1.15\ngini = 0.41\nsamples = 7\nvalue = [0, 0, 5, 2, 0, 0, 0]\nclass = a", fillcolor="#88ef94"] ;
290 -> 291 ;
292 [label="alcohol <= 9.75\ngini = 0.44\nsamples = 3\nvalue = [0, 0, 1, 2, 0, 0, 0]\nclass = l", fillcolor="#9cf2f0"] ;
291 -> 292 ;
293 [label="gini = 0.0\nsamples = 1\nvalue = [0, 0, 1, 0, 0, 0, 0]\nclass = a", fillcolor="#39e54d"] ;
292 -> 293 ;
294 [label="gini = 0.0\nsamples = 2\nvalue = [0, 0, 0, 2, 0, 0, 0]\nclass = l", fillcolor="#39e5e2"] ;
292 -> 294 ;
295 [label="gini = 0.0\nsamples = 4\nvalue = [0, 0, 4, 0, 0, 0, 0]\nclass = a", fillcolor="#39e54d"] ;
291 -> 295 ;
296 [label="density <= 0.99\ngini = 0.54\nsamples = 13\nvalue = [0, 0, 2, 8, 3, 0, 0]\nclass = l", fillcolor="#9cf2f0"] ;
290 -> 296 ;
297 [label="gini = 0.0\nsamples = 2\nvalue = [0, 0, 0, 0, 2, 0, 0]\nclass = i", fillcolor="#3956e5"] ;
296 -> 297 ;
298 [label="citric acid <= 0.34\ngini = 0.43\nsamples = 11\nvalue = [0, 0, 2, 8, 1, 0, 0]\nclass = l", fillcolor="#7beeec"] ;
296 -> 298 ;
299 [label="free sulfur dioxide <= 37.0\ngini = 0.22\nsamples = 8\nvalue = [0, 0, 0, 7, 1, 0, 0]\nclass = l", fillcolor="#55e9e6"] ;
298 -> 299 ;
300 [label="gini = 0.0\nsamples = 6\nvalue = [0, 0, 0, 6, 0, 0, 0]\nclass = l", fillcolor="#39e5e2"] ;
299 -> 300 ;
301 [label="total sulfur dioxide <= 154.5\ngini = 0.5\nsamples = 2\nvalue = [0, 0, 0, 1, 1, 0, 0]\nclass = l", fillcolor="#ffffff"] ;
299 -> 301 ;
302 [label="gini = 0.0\nsamples = 1\nvalue = [0, 0, 0, 1, 0, 0, 0]\nclass = l", fillcolor="#39e5e2"] ;
301 -> 302 ;
303 [label="gini = 0.0\nsamples = 1\nvalue = [0, 0, 0, 0, 1, 0, 0]\nclass = i", fillcolor="#3956e5"] ;
301 -> 303 ;
304 [label="chlorides <= 0.05\ngini = 0.44\nsamples = 3\nvalue = [0, 0, 2, 1, 0, 0, 0]\nclass = a", fillcolor="#9cf2a6"] ;
298 -> 304 ;
305 [label="gini = 0.0\nsamples = 2\nvalue = [0, 0, 2, 0, 0, 0, 0]\nclass = a", fillcolor="#39e54d"] ;
304 -> 305 ;
306 [label="gini = 0.0\nsamples = 1\nvalue = [0, 0, 0, 1, 0, 0, 0]\nclass = l", fillcolor="#39e5e2"] ;
304 -> 306 ;
307 [label="chlorides <= 0.07\ngini = 0.18\nsamples = 21\nvalue = [0, 0, 1, 19, 1, 0, 0]\nclass = l", fillcolor="#4de8e5"] ;
289 -> 307 ;
308 [label="residual sugar <= 5.15\ngini = 0.09\nsamples = 20\nvalue = [0, 0, 1, 19, 0, 0, 0]\nclass = l", fillcolor="#43e6e4"] ;
307 -> 308 ;
309 [label="gini = 0.0\nsamples = 19\nvalue = [0, 0, 0, 19, 0, 0, 0]\nclass = l", fillcolor="#39e5e2"] ;
308 -> 309 ;
310 [label="gini = 0.0\nsamples = 1\nvalue = [0, 0, 1, 0, 0, 0, 0]\nclass = a", fillcolor="#39e54d"] ;
308 -> 310 ;
311 [label="gini = 0.0\nsamples = 1\nvalue = [0, 0, 0, 0, 1, 0, 0]\nclass = i", fillcolor="#3956e5"] ;
307 -> 311 ;
312 [label="chlorides <= 0.11\ngini = 0.44\nsamples = 3\nvalue = [0, 0, 1, 0, 2, 0, 0]\nclass = i", fillcolor="#9caaf2"] ;
288 -> 312 ;
313 [label="gini = 0.0\nsamples = 2\nvalue = [0, 0, 0, 0, 2, 0, 0]\nclass = i", fillcolor="#3956e5"] ;
312 -> 313 ;
314 [label="gini = 0.0\nsamples = 1\nvalue = [0, 0, 1, 0, 0, 0, 0]\nclass = a", fillcolor="#39e54d"] ;
312 -> 314 ;
315 [label="free sulfur dioxide <= 27.5\ngini = 0.61\nsamples = 46\nvalue = [0, 1, 5, 21, 19, 0, 0]\nclass = l", fillcolor="#f0fdfd"] ;
287 -> 315 ;
316 [label="fixed acidity <= 7.45\ngini = 0.56\nsamples = 18\nvalue = [0, 1, 4, 11, 2, 0, 0]\nclass = l", fillcolor="#9cf2f0"] ;
315 -> 316 ;
317 [label="total sulfur dioxide <= 133.5\ngini = 0.4\nsamples = 12\nvalue = [0, 1, 0, 9, 2, 0, 0]\nclass = l", fillcolor="#74edeb"] ;
316 -> 317 ;
318 [label="density <= 0.99\ngini = 0.3\nsamples = 11\nvalue = [0, 0, 0, 9, 2, 0, 0]\nclass = l", fillcolor="#65ebe8"] ;
317 -> 318 ;
319 [label="gini = 0.0\nsamples = 1\nvalue = [0, 0, 0, 0, 1, 0, 0]\nclass = i", fillcolor="#3956e5"] ;
318 -> 319 ;
320 [label="density <= 0.99\ngini = 0.18\nsamples = 10\nvalue = [0, 0, 0, 9, 1, 0, 0]\nclass = l", fillcolor="#4fe8e5"] ;
318 -> 320 ;
321 [label="gini = 0.0\nsamples = 8\nvalue = [0, 0, 0, 8, 0, 0, 0]\nclass = l", fillcolor="#39e5e2"] ;
320 -> 321 ;
322 [label="volatile acidity <= 0.18\ngini = 0.5\nsamples = 2\nvalue = [0, 0, 0, 1, 1, 0, 0]\nclass = l", fillcolor="#ffffff"] ;
320 -> 322 ;
323 [label="gini = 0.0\nsamples = 1\nvalue = [0, 0, 0, 1, 0, 0, 0]\nclass = l", fillcolor="#39e5e2"] ;
322 -> 323 ;
324 [label="gini = 0.0\nsamples = 1\nvalue = [0, 0, 0, 0, 1, 0, 0]\nclass = i", fillcolor="#3956e5"] ;
322 -> 324 ;
325 [label="gini = 0.0\nsamples = 1\nvalue = [0, 1, 0, 0, 0, 0, 0]\nclass = u", fillcolor="#b7e539"] ;
317 -> 325 ;
326 [label="citric acid <= 0.42\ngini = 0.44\nsamples = 6\nvalue = [0, 0, 4, 2, 0, 0, 0]\nclass = a", fillcolor="#9cf2a6"] ;
316 -> 326 ;
327 [label="gini = 0.0\nsamples = 4\nvalue = [0, 0, 4, 0, 0, 0, 0]\nclass = a", fillcolor="#39e54d"] ;
326 -> 327 ;
328 [label="gini = 0.0\nsamples = 2\nvalue = [0, 0, 0, 2, 0, 0, 0]\nclass = l", fillcolor="#39e5e2"] ;
326 -> 328 ;
329 [label="sulphates <= 0.72\ngini = 0.5\nsamples = 28\nvalue = [0, 0, 1, 10, 17, 0, 0]\nclass = i", fillcolor="#b2bdf5"] ;
315 -> 329 ;
330 [label="citric acid <= 0.24\ngini = 0.45\nsamples = 23\nvalue = [0, 0, 1, 6, 16, 0, 0]\nclass = i", fillcolor="#8b9cf0"] ;
329 -> 330 ;
331 [label="sulphates <= 0.59\ngini = 0.44\nsamples = 3\nvalue = [0, 0, 1, 2, 0, 0, 0]\nclass = l", fillcolor="#9cf2f0"] ;
330 -> 331 ;
332 [label="gini = 0.0\nsamples = 2\nvalue = [0, 0, 0, 2, 0, 0, 0]\nclass = l", fillcolor="#39e5e2"] ;
331 -> 332 ;
333 [label="gini = 0.0\nsamples = 1\nvalue = [0, 0, 1, 0, 0, 0, 0]\nclass = a", fillcolor="#39e54d"] ;
331 -> 333 ;
334 [label="density <= 0.99\ngini = 0.32\nsamples = 20\nvalue = [0, 0, 0, 4, 16, 0, 0]\nclass = i", fillcolor="#6a80ec"] ;
330 -> 334 ;
335 [label="citric acid <= 0.35\ngini = 0.38\nsamples = 4\nvalue = [0, 0, 0, 3, 1, 0, 0]\nclass = l", fillcolor="#7beeec"] ;
334 -> 335 ;
336 [label="gini = 0.0\nsamples = 1\nvalue = [0, 0, 0, 0, 1, 0, 0]\nclass = i", fillcolor="#3956e5"] ;
335 -> 336 ;
337 [label="gini = 0.0\nsamples = 3\nvalue = [0, 0, 0, 3, 0, 0, 0]\nclass = l", fillcolor="#39e5e2"] ;
335 -> 337 ;
338 [label="fixed acidity <= 5.85\ngini = 0.12\nsamples = 16\nvalue = [0, 0, 0, 1, 15, 0, 0]\nclass = i", fillcolor="#4661e7"] ;
334 -> 338 ;
339 [label="gini = 0.0\nsamples = 1\nvalue = [0, 0, 0, 1, 0, 0, 0]\nclass = l", fillcolor="#39e5e2"] ;
338 -> 339 ;
340 [label="gini = 0.0\nsamples = 15\nvalue = [0, 0, 0, 0, 15, 0, 0]\nclass = i", fillcolor="#3956e5"] ;
338 -> 340 ;
341 [label="alcohol <= 10.25\ngini = 0.32\nsamples = 5\nvalue = [0, 0, 0, 4, 1, 0, 0]\nclass = l", fillcolor="#6aece9"] ;
329 -> 341 ;
342 [label="gini = 0.0\nsamples = 1\nvalue = [0, 0, 0, 0, 1, 0, 0]\nclass = i", fillcolor="#3956e5"] ;
341 -> 342 ;
343 [label="gini = 0.0\nsamples = 4\nvalue = [0, 0, 0, 4, 0, 0, 0]\nclass = l", fillcolor="#39e5e2"] ;
341 -> 343 ;
344 [label="volatile acidity <= 0.23\ngini = 0.46\nsamples = 10\nvalue = [0, 0, 0, 1, 7, 2, 0]\nclass = i", fillcolor="#8395ef"] ;
284 -> 344 ;
345 [label="gini = 0.0\nsamples = 7\nvalue = [0, 0, 0, 0, 7, 0, 0]\nclass = i", fillcolor="#3956e5"] ;
344 -> 345 ;
346 [label="pH <= 3.28\ngini = 0.44\nsamples = 3\nvalue = [0, 0, 0, 1, 0, 2, 0]\nclass = t", fillcolor="#d89cf2"] ;
344 -> 346 ;
347 [label="gini = 0.0\nsamples = 1\nvalue = [0, 0, 0, 1, 0, 0, 0]\nclass = l", fillcolor="#39e5e2"] ;
346 -> 347 ;
348 [label="gini = 0.0\nsamples = 2\nvalue = [0, 0, 0, 0, 0, 2, 0]\nclass = t", fillcolor="#b139e5"] ;
346 -> 348 ;
349 [label="citric acid <= 0.2\ngini = 0.42\nsamples = 221\nvalue = [0, 2, 29, 164, 25, 1, 0]\nclass = l", fillcolor="#74edeb"] ;
283 -> 349 ;
350 [label="sulphates <= 0.56\ngini = 0.44\nsamples = 6\nvalue = [0, 0, 4, 2, 0, 0, 0]\nclass = a", fillcolor="#9cf2a6"] ;
349 -> 350 ;
351 [label="gini = 0.0\nsamples = 4\nvalue = [0, 0, 4, 0, 0, 0, 0]\nclass = a", fillcolor="#39e54d"] ;
350 -> 351 ;
352 [label="gini = 0.0\nsamples = 2\nvalue = [0, 0, 0, 2, 0, 0, 0]\nclass = l", fillcolor="#39e5e2"] ;
350 -> 352 ;
353 [label="fixed acidity <= 7.05\ngini = 0.41\nsamples = 215\nvalue = [0, 2, 25, 162, 25, 1, 0]\nclass = l", fillcolor="#70ecea"] ;
349 -> 353 ;
354 [label="free sulfur dioxide <= 37.5\ngini = 0.26\nsamples = 105\nvalue = [0, 0, 7, 90, 8, 0, 0]\nclass = l", fillcolor="#58e9e6"] ;
353 -> 354 ;
355 [label="gini = 0.0\nsamples = 41\nvalue = [0, 0, 0, 41, 0, 0, 0]\nclass = l", fillcolor="#39e5e2"] ;
354 -> 355 ;
356 [label="fixed acidity <= 6.85\ngini = 0.39\nsamples = 64\nvalue = [0, 0, 7, 49, 8, 0, 0]\nclass = l", fillcolor="#6eecea"] ;
354 -> 356 ;
357 [label="chlorides <= 0.04\ngini = 0.29\nsamples = 49\nvalue = [0, 0, 5, 41, 3, 0, 0]\nclass = l", fillcolor="#5deae7"] ;
356 -> 357 ;
358 [label="density <= 1.0\ngini = 0.5\nsamples = 6\nvalue = [0, 0, 0, 3, 3, 0, 0]\nclass = l", fillcolor="#ffffff"] ;
357 -> 358 ;
359 [label="gini = 0.0\nsamples = 3\nvalue = [0, 0, 0, 0, 3, 0, 0]\nclass = i", fillcolor="#3956e5"] ;
358 -> 359 ;
360 [label="gini = 0.0\nsamples = 3\nvalue = [0, 0, 0, 3, 0, 0, 0]\nclass = l", fillcolor="#39e5e2"] ;
358 -> 360 ;
361 [label="pH <= 3.25\ngini = 0.21\nsamples = 43\nvalue = [0, 0, 5, 38, 0, 0, 0]\nclass = l", fillcolor="#53e8e6"] ;
357 -> 361 ;
362 [label="gini = 0.0\nsamples = 26\nvalue = [0, 0, 0, 26, 0, 0, 0]\nclass = l", fillcolor="#39e5e2"] ;
361 -> 362 ;
363 [label="volatile acidity <= 0.23\ngini = 0.42\nsamples = 17\nvalue = [0, 0, 5, 12, 0, 0, 0]\nclass = l", fillcolor="#8bf0ee"] ;
361 -> 363 ;
364 [label="sulphates <= 0.7\ngini = 0.32\nsamples = 15\nvalue = [0, 0, 3, 12, 0, 0, 0]\nclass = l", fillcolor="#6aece9"] ;
363 -> 364 ;
365 [label="volatile acidity <= 0.2\ngini = 0.48\nsamples = 5\nvalue = [0, 0, 3, 2, 0, 0, 0]\nclass = a", fillcolor="#bdf6c4"] ;
364 -> 365 ;
366 [label="gini = 0.0\nsamples = 3\nvalue = [0, 0, 3, 0, 0, 0, 0]\nclass = a", fillcolor="#39e54d"] ;
365 -> 366 ;
367 [label="gini = 0.0\nsamples = 2\nvalue = [0, 0, 0, 2, 0, 0, 0]\nclass = l", fillcolor="#39e5e2"] ;
365 -> 367 ;
368 [label="gini = 0.0\nsamples = 10\nvalue = [0, 0, 0, 10, 0, 0, 0]\nclass = l", fillcolor="#39e5e2"] ;
364 -> 368 ;
369 [label="gini = 0.0\nsamples = 2\nvalue = [0, 0, 2, 0, 0, 0, 0]\nclass = a", fillcolor="#39e54d"] ;
363 -> 369 ;
370 [label="density <= 1.0\ngini = 0.59\nsamples = 15\nvalue = [0, 0, 2, 8, 5, 0, 0]\nclass = l", fillcolor="#c4f7f6"] ;
356 -> 370 ;
371 [label="volatile acidity <= 0.22\ngini = 0.2\nsamples = 9\nvalue = [0, 0, 0, 8, 1, 0, 0]\nclass = l", fillcolor="#52e8e6"] ;
370 -> 371 ;
372 [label="gini = 0.0\nsamples = 8\nvalue = [0, 0, 0, 8, 0, 0, 0]\nclass = l", fillcolor="#39e5e2"] ;
371 -> 372 ;
373 [label="gini = 0.0\nsamples = 1\nvalue = [0, 0, 0, 0, 1, 0, 0]\nclass = i", fillcolor="#3956e5"] ;
371 -> 373 ;
374 [label="residual sugar <= 14.0\ngini = 0.44\nsamples = 6\nvalue = [0, 0, 2, 0, 4, 0, 0]\nclass = i", fillcolor="#9caaf2"] ;
370 -> 374 ;
375 [label="gini = 0.0\nsamples = 2\nvalue = [0, 0, 2, 0, 0, 0, 0]\nclass = a", fillcolor="#39e54d"] ;
374 -> 375 ;
376 [label="gini = 0.0\nsamples = 4\nvalue = [0, 0, 0, 0, 4, 0, 0]\nclass = i", fillcolor="#3956e5"] ;
374 -> 376 ;
377 [label="sulphates <= 0.5\ngini = 0.52\nsamples = 110\nvalue = [0, 2, 18, 72, 17, 1, 0]\nclass = l", fillcolor="#8bf0ee"] ;
353 -> 377 ;
378 [label="total sulfur dioxide <= 197.5\ngini = 0.49\nsamples = 12\nvalue = [0, 0, 0, 5, 7, 0, 0]\nclass = i", fillcolor="#c6cff8"] ;
377 -> 378 ;
379 [label="residual sugar <= 1.75\ngini = 0.28\nsamples = 6\nvalue = [0, 0, 0, 5, 1, 0, 0]\nclass = l", fillcolor="#61eae8"] ;
378 -> 379 ;
380 [label="gini = 0.0\nsamples = 1\nvalue = [0, 0, 0, 0, 1, 0, 0]\nclass = i", fillcolor="#3956e5"] ;
379 -> 380 ;
381 [label="gini = 0.0\nsamples = 5\nvalue = [0, 0, 0, 5, 0, 0, 0]\nclass = l", fillcolor="#39e5e2"] ;
379 -> 381 ;
382 [label="gini = 0.0\nsamples = 6\nvalue = [0, 0, 0, 0, 6, 0, 0]\nclass = i", fillcolor="#3956e5"] ;
378 -> 382 ;
383 [label="free sulfur dioxide <= 23.5\ngini = 0.49\nsamples = 98\nvalue = [0, 2, 18, 67, 10, 1, 0]\nclass = l", fillcolor="#86efed"] ;
377 -> 383 ;
384 [label="citric acid <= 0.33\ngini = 0.32\nsamples = 5\nvalue = [0, 1, 4, 0, 0, 0, 0]\nclass = a", fillcolor="#6aec79"] ;
383 -> 384 ;
385 [label="gini = 0.0\nsamples = 1\nvalue = [0, 1, 0, 0, 0, 0, 0]\nclass = u", fillcolor="#b7e539"] ;
384 -> 385 ;
386 [label="gini = 0.0\nsamples = 4\nvalue = [0, 0, 4, 0, 0, 0, 0]\nclass = a", fillcolor="#39e54d"] ;
384 -> 386 ;
387 [label="volatile acidity <= 0.21\ngini = 0.45\nsamples = 93\nvalue = [0, 1, 14, 67, 10, 1, 0]\nclass = l", fillcolor="#7aeeec"] ;
383 -> 387 ;
388 [label="volatile acidity <= 0.16\ngini = 0.33\nsamples = 62\nvalue = [0, 0, 3, 50, 8, 1, 0]\nclass = l", fillcolor="#65ebe8"] ;
387 -> 388 ;
389 [label="residual sugar <= 3.1\ngini = 0.64\nsamples = 9\nvalue = [0, 0, 2, 3, 4, 0, 0]\nclass = i", fillcolor="#dee3fb"] ;
388 -> 389 ;
390 [label="gini = 0.0\nsamples = 3\nvalue = [0, 0, 0, 3, 0, 0, 0]\nclass = l", fillcolor="#39e5e2"] ;
389 -> 390 ;
391 [label="pH <= 3.38\ngini = 0.44\nsamples = 6\nvalue = [0, 0, 2, 0, 4, 0, 0]\nclass = i", fillcolor="#9caaf2"] ;
389 -> 391 ;
392 [label="gini = 0.0\nsamples = 4\nvalue = [0, 0, 0, 0, 4, 0, 0]\nclass = i", fillcolor="#3956e5"] ;
391 -> 392 ;
393 [label="gini = 0.0\nsamples = 2\nvalue = [0, 0, 2, 0, 0, 0, 0]\nclass = a", fillcolor="#39e54d"] ;
391 -> 393 ;
394 [label="chlorides <= 0.06\ngini = 0.21\nsamples = 53\nvalue = [0, 0, 1, 47, 4, 1, 0]\nclass = l", fillcolor="#51e8e6"] ;
388 -> 394 ;
395 [label="residual sugar <= 18.02\ngini = 0.18\nsamples = 52\nvalue = [0, 0, 0, 47, 4, 1, 0]\nclass = l", fillcolor="#4ee8e5"] ;
394 -> 395 ;
396 [label="total sulfur dioxide <= 154.5\ngini = 0.15\nsamples = 51\nvalue = [0, 0, 0, 47, 3, 1, 0]\nclass = l", fillcolor="#4ae7e4"] ;
395 -> 396 ;
397 [label="volatile acidity <= 0.2\ngini = 0.34\nsamples = 20\nvalue = [0, 0, 0, 16, 3, 1, 0]\nclass = l", fillcolor="#68ebe9"] ;
396 -> 397 ;
398 [label="residual sugar <= 13.85\ngini = 0.12\nsamples = 15\nvalue = [0, 0, 0, 14, 0, 1, 0]\nclass = l", fillcolor="#47e7e4"] ;
397 -> 398 ;
399 [label="gini = 0.0\nsamples = 14\nvalue = [0, 0, 0, 14, 0, 0, 0]\nclass = l", fillcolor="#39e5e2"] ;
398 -> 399 ;
400 [label="gini = 0.0\nsamples = 1\nvalue = [0, 0, 0, 0, 0, 1, 0]\nclass = t", fillcolor="#b139e5"] ;
398 -> 400 ;
401 [label="citric acid <= 0.33\ngini = 0.48\nsamples = 5\nvalue = [0, 0, 0, 2, 3, 0, 0]\nclass = i", fillcolor="#bdc7f6"] ;
397 -> 401 ;
402 [label="gini = 0.0\nsamples = 2\nvalue = [0, 0, 0, 2, 0, 0, 0]\nclass = l", fillcolor="#39e5e2"] ;
401 -> 402 ;
403 [label="gini = 0.0\nsamples = 3\nvalue = [0, 0, 0, 0, 3, 0, 0]\nclass = i", fillcolor="#3956e5"] ;
401 -> 403 ;
404 [label="gini = 0.0\nsamples = 31\nvalue = [0, 0, 0, 31, 0, 0, 0]\nclass = l", fillcolor="#39e5e2"] ;
396 -> 404 ;
405 [label="gini = 0.0\nsamples = 1\nvalue = [0, 0, 0, 0, 1, 0, 0]\nclass = i", fillcolor="#3956e5"] ;
395 -> 405 ;
406 [label="gini = 0.0\nsamples = 1\nvalue = [0, 0, 1, 0, 0, 0, 0]\nclass = a", fillcolor="#39e54d"] ;
394 -> 406 ;
407 [label="chlorides <= 0.05\ngini = 0.57\nsamples = 31\nvalue = [0, 1, 11, 17, 2, 0, 0]\nclass = l", fillcolor="#c4f7f6"] ;
387 -> 407 ;
408 [label="sulphates <= 0.73\ngini = 0.51\nsamples = 26\nvalue = [0, 1, 6, 17, 2, 0, 0]\nclass = l", fillcolor="#92f1ef"] ;
407 -> 408 ;
409 [label="alcohol <= 8.85\ngini = 0.33\nsamples = 21\nvalue = [0, 0, 2, 17, 2, 0, 0]\nclass = l", fillcolor="#63eae8"] ;
408 -> 409 ;
410 [label="alcohol <= 8.7\ngini = 0.5\nsamples = 2\nvalue = [0, 0, 1, 0, 1, 0, 0]\nclass = a", fillcolor="#ffffff"] ;
409 -> 410 ;
411 [label="gini = 0.0\nsamples = 1\nvalue = [0, 0, 0, 0, 1, 0, 0]\nclass = i", fillcolor="#3956e5"] ;
410 -> 411 ;
412 [label="gini = 0.0\nsamples = 1\nvalue = [0, 0, 1, 0, 0, 0, 0]\nclass = a", fillcolor="#39e54d"] ;
410 -> 412 ;
413 [label="residual sugar <= 7.95\ngini = 0.19\nsamples = 19\nvalue = [0, 0, 1, 17, 1, 0, 0]\nclass = l", fillcolor="#4fe8e5"] ;
409 -> 413 ;
414 [label="fixed acidity <= 8.3\ngini = 0.5\nsamples = 2\nvalue = [0, 0, 1, 1, 0, 0, 0]\nclass = a", fillcolor="#ffffff"] ;
413 -> 414 ;
415 [label="gini = 0.0\nsamples = 1\nvalue = [0, 0, 1, 0, 0, 0, 0]\nclass = a", fillcolor="#39e54d"] ;
414 -> 415 ;
416 [label="gini = 0.0\nsamples = 1\nvalue = [0, 0, 0, 1, 0, 0, 0]\nclass = l", fillcolor="#39e5e2"] ;
414 -> 416 ;
417 [label="fixed acidity <= 7.9\ngini = 0.11\nsamples = 17\nvalue = [0, 0, 0, 16, 1, 0, 0]\nclass = l", fillcolor="#45e7e4"] ;
413 -> 417 ;
418 [label="gini = 0.0\nsamples = 13\nvalue = [0, 0, 0, 13, 0, 0, 0]\nclass = l", fillcolor="#39e5e2"] ;
417 -> 418 ;
419 [label="pH <= 3.05\ngini = 0.38\nsamples = 4\nvalue = [0, 0, 0, 3, 1, 0, 0]\nclass = l", fillcolor="#7beeec"] ;
417 -> 419 ;
420 [label="gini = 0.0\nsamples = 3\nvalue = [0, 0, 0, 3, 0, 0, 0]\nclass = l", fillcolor="#39e5e2"] ;
419 -> 420 ;
421 [label="gini = 0.0\nsamples = 1\nvalue = [0, 0, 0, 0, 1, 0, 0]\nclass = i", fillcolor="#3956e5"] ;
419 -> 421 ;
422 [label="residual sugar <= 10.45\ngini = 0.32\nsamples = 5\nvalue = [0, 1, 4, 0, 0, 0, 0]\nclass = a", fillcolor="#6aec79"] ;
408 -> 422 ;
423 [label="gini = 0.0\nsamples = 1\nvalue = [0, 1, 0, 0, 0, 0, 0]\nclass = u", fillcolor="#b7e539"] ;
422 -> 423 ;
424 [label="gini = 0.0\nsamples = 4\nvalue = [0, 0, 4, 0, 0, 0, 0]\nclass = a", fillcolor="#39e54d"] ;
422 -> 424 ;
425 [label="gini = 0.0\nsamples = 5\nvalue = [0, 0, 5, 0, 0, 0, 0]\nclass = a", fillcolor="#39e54d"] ;
407 -> 425 ;
426 [label="gini = 0.0\nsamples = 5\nvalue = [0, 0, 0, 0, 5, 0, 0]\nclass = i", fillcolor="#3956e5"] ;
260 -> 426 ;
427 [label="alcohol <= 9.78\ngini = 0.58\nsamples = 1503\nvalue = [7, 79, 807, 543, 60, 6, 1]\nclass = a", fillcolor="#c9f8ce"] ;
1 -> 427 ;
428 [label="volatile acidity <= 0.3\ngini = 0.52\nsamples = 913\nvalue = [3, 44, 575, 266, 24, 1, 0]\nclass = a", fillcolor="#a0f3aa"] ;
427 -> 428 ;
429 [label="citric acid <= 0.23\ngini = 0.56\nsamples = 452\nvalue = [0, 16, 246, 169, 20, 1, 0]\nclass = a", fillcolor="#c9f8cf"] ;
428 -> 429 ;
430 [label="sulphates <= 0.53\ngini = 0.41\nsamples = 66\nvalue = [0, 5, 49, 12, 0, 0, 0]\nclass = a", fillcolor="#77ed85"] ;
429 -> 430 ;
431 [label="sulphates <= 0.47\ngini = 0.31\nsamples = 59\nvalue = [0, 1, 48, 10, 0, 0, 0]\nclass = a", fillcolor="#65eb75"] ;
430 -> 431 ;
432 [label="chlorides <= 0.04\ngini = 0.49\nsamples = 29\nvalue = [0, 1, 18, 10, 0, 0, 0]\nclass = a", fillcolor="#acf4b4"] ;
431 -> 432 ;
433 [label="gini = 0.0\nsamples = 4\nvalue = [0, 0, 0, 4, 0, 0, 0]\nclass = l", fillcolor="#39e5e2"] ;
432 -> 433 ;
434 [label="total sulfur dioxide <= 152.0\ngini = 0.42\nsamples = 25\nvalue = [0, 1, 18, 6, 0, 0, 0]\nclass = a", fillcolor="#82ef8f"] ;
432 -> 434 ;
435 [label="volatile acidity <= 0.26\ngini = 0.57\nsamples = 13\nvalue = [0, 1, 6, 6, 0, 0, 0]\nclass = a", fillcolor="#ffffff"] ;
434 -> 435 ;
436 [label="gini = 0.0\nsamples = 5\nvalue = [0, 0, 0, 5, 0, 0, 0]\nclass = l", fillcolor="#39e5e2"] ;
435 -> 436 ;
437 [label="alcohol <= 8.75\ngini = 0.41\nsamples = 8\nvalue = [0, 1, 6, 1, 0, 0, 0]\nclass = a", fillcolor="#72ec80"] ;
435 -> 437 ;
438 [label="density <= 0.99\ngini = 0.5\nsamples = 2\nvalue = [0, 1, 0, 1, 0, 0, 0]\nclass = u", fillcolor="#ffffff"] ;
437 -> 438 ;
439 [label="gini = 0.0\nsamples = 1\nvalue = [0, 0, 0, 1, 0, 0, 0]\nclass = l", fillcolor="#39e5e2"] ;
438 -> 439 ;
440 [label="gini = 0.0\nsamples = 1\nvalue = [0, 1, 0, 0, 0, 0, 0]\nclass = u", fillcolor="#b7e539"] ;
438 -> 440 ;
441 [label="gini = 0.0\nsamples = 6\nvalue = [0, 0, 6, 0, 0, 0, 0]\nclass = a", fillcolor="#39e54d"] ;
437 -> 441 ;
442 [label="gini = 0.0\nsamples = 12\nvalue = [0, 0, 12, 0, 0, 0, 0]\nclass = a", fillcolor="#39e54d"] ;
434 -> 442 ;
443 [label="gini = 0.0\nsamples = 30\nvalue = [0, 0, 30, 0, 0, 0, 0]\nclass = a", fillcolor="#39e54d"] ;
431 -> 443 ;
444 [label="pH <= 3.16\ngini = 0.57\nsamples = 7\nvalue = [0, 4, 1, 2, 0, 0, 0]\nclass = u", fillcolor="#e2f5b0"] ;
430 -> 444 ;
445 [label="sulphates <= 0.64\ngini = 0.44\nsamples = 3\nvalue = [0, 0, 1, 2, 0, 0, 0]\nclass = l", fillcolor="#9cf2f0"] ;
444 -> 445 ;
446 [label="gini = 0.0\nsamples = 2\nvalue = [0, 0, 0, 2, 0, 0, 0]\nclass = l", fillcolor="#39e5e2"] ;
445 -> 446 ;
447 [label="gini = 0.0\nsamples = 1\nvalue = [0, 0, 1, 0, 0, 0, 0]\nclass = a", fillcolor="#39e54d"] ;
445 -> 447 ;
448 [label="gini = 0.0\nsamples = 4\nvalue = [0, 4, 0, 0, 0, 0, 0]\nclass = u", fillcolor="#b7e539"] ;
444 -> 448 ;
449 [label="alcohol <= 8.75\ngini = 0.57\nsamples = 386\nvalue = [0, 11, 197, 157, 20, 1, 0]\nclass = a", fillcolor="#dcfae0"] ;
429 -> 449 ;
450 [label="chlorides <= 0.07\ngini = 0.19\nsamples = 19\nvalue = [0, 0, 17, 2, 0, 0, 0]\nclass = a", fillcolor="#50e862"] ;
449 -> 450 ;
451 [label="total sulfur dioxide <= 236.5\ngini = 0.1\nsamples = 18\nvalue = [0, 0, 17, 1, 0, 0, 0]\nclass = a", fillcolor="#45e757"] ;
450 -> 451 ;
452 [label="gini = 0.0\nsamples = 17\nvalue = [0, 0, 17, 0, 0, 0, 0]\nclass = a", fillcolor="#39e54d"] ;
451 -> 452 ;
453 [label="gini = 0.0\nsamples = 1\nvalue = [0, 0, 0, 1, 0, 0, 0]\nclass = l", fillcolor="#39e5e2"] ;
451 -> 453 ;
454 [label="gini = 0.0\nsamples = 1\nvalue = [0, 0, 0, 1, 0, 0, 0]\nclass = l", fillcolor="#39e5e2"] ;
450 -> 454 ;
455 [label="free sulfur dioxide <= 21.5\ngini = 0.58\nsamples = 367\nvalue = [0, 11, 180, 155, 20, 1, 0]\nclass = a", fillcolor="#e8fcea"] ;
449 -> 455 ;
456 [label="total sulfur dioxide <= 125.5\ngini = 0.31\nsamples = 22\nvalue = [0, 1, 18, 3, 0, 0, 0]\nclass = a", fillcolor="#63ea72"] ;
455 -> 456 ;
457 [label="pH <= 3.0\ngini = 0.12\nsamples = 16\nvalue = [0, 1, 15, 0, 0, 0, 0]\nclass = a", fillcolor="#46e759"] ;
456 -> 457 ;
458 [label="gini = 0.0\nsamples = 1\nvalue = [0, 1, 0, 0, 0, 0, 0]\nclass = u", fillcolor="#b7e539"] ;
457 -> 458 ;
459 [label="gini = 0.0\nsamples = 15\nvalue = [0, 0, 15, 0, 0, 0, 0]\nclass = a", fillcolor="#39e54d"] ;
457 -> 459 ;
460 [label="chlorides <= 0.05\ngini = 0.5\nsamples = 6\nvalue = [0, 0, 3, 3, 0, 0, 0]\nclass = a", fillcolor="#ffffff"] ;
456 -> 460 ;
461 [label="gini = 0.0\nsamples = 3\nvalue = [0, 0, 0, 3, 0, 0, 0]\nclass = l", fillcolor="#39e5e2"] ;
460 -> 461 ;
462 [label="gini = 0.0\nsamples = 3\nvalue = [0, 0, 3, 0, 0, 0, 0]\nclass = a", fillcolor="#39e54d"] ;
460 -> 462 ;
463 [label="total sulfur dioxide <= 132.5\ngini = 0.58\nsamples = 345\nvalue = [0, 10, 162, 152, 20, 1, 0]\nclass = a", fillcolor="#f5fef6"] ;
455 -> 463 ;
464 [label="fixed acidity <= 7.25\ngini = 0.3\nsamples = 32\nvalue = [0, 0, 6, 26, 0, 0, 0]\nclass = l", fillcolor="#67ebe9"] ;
463 -> 464 ;
465 [label="pH <= 3.4\ngini = 0.14\nsamples = 26\nvalue = [0, 0, 2, 24, 0, 0, 0]\nclass = l", fillcolor="#49e7e4"] ;
464 -> 465 ;
466 [label="volatile acidity <= 0.29\ngini = 0.08\nsamples = 25\nvalue = [0, 0, 1, 24, 0, 0, 0]\nclass = l", fillcolor="#41e6e3"] ;
465 -> 466 ;
467 [label="gini = 0.0\nsamples = 21\nvalue = [0, 0, 0, 21, 0, 0, 0]\nclass = l", fillcolor="#39e5e2"] ;
466 -> 467 ;
468 [label="sulphates <= 0.49\ngini = 0.38\nsamples = 4\nvalue = [0, 0, 1, 3, 0, 0, 0]\nclass = l", fillcolor="#7beeec"] ;
466 -> 468 ;
469 [label="gini = 0.0\nsamples = 1\nvalue = [0, 0, 1, 0, 0, 0, 0]\nclass = a", fillcolor="#39e54d"] ;
468 -> 469 ;
470 [label="gini = 0.0\nsamples = 3\nvalue = [0, 0, 0, 3, 0, 0, 0]\nclass = l", fillcolor="#39e5e2"] ;
468 -> 470 ;
471 [label="gini = 0.0\nsamples = 1\nvalue = [0, 0, 1, 0, 0, 0, 0]\nclass = a", fillcolor="#39e54d"] ;
465 -> 471 ;
472 [label="chlorides <= 0.04\ngini = 0.44\nsamples = 6\nvalue = [0, 0, 4, 2, 0, 0, 0]\nclass = a", fillcolor="#9cf2a6"] ;
464 -> 472 ;
473 [label="gini = 0.0\nsamples = 2\nvalue = [0, 0, 0, 2, 0, 0, 0]\nclass = l", fillcolor="#39e5e2"] ;
472 -> 473 ;
474 [label="gini = 0.0\nsamples = 4\nvalue = [0, 0, 4, 0, 0, 0, 0]\nclass = a", fillcolor="#39e54d"] ;
472 -> 474 ;
475 [label="free sulfur dioxide <= 67.5\ngini = 0.58\nsamples = 313\nvalue = [0, 10, 156, 126, 20, 1, 0]\nclass = a", fillcolor="#dffbe2"] ;
463 -> 475 ;
476 [label="fixed acidity <= 6.85\ngini = 0.58\nsamples = 294\nvalue = [0, 9, 152, 112, 20, 1, 0]\nclass = a", fillcolor="#d3f9d8"] ;
475 -> 476 ;
477 [label="residual sugar <= 7.47\ngini = 0.51\nsamples = 171\nvalue = [0, 4, 104, 58, 4, 1, 0]\nclass = a", fillcolor="#aef4b7"] ;
476 -> 477 ;
478 [label="fixed acidity <= 6.75\ngini = 0.53\nsamples = 54\nvalue = [0, 0, 25, 27, 1, 1, 0]\nclass = l", fillcolor="#f1fdfd"] ;
477 -> 478 ;
479 [label="total sulfur dioxide <= 163.5\ngini = 0.54\nsamples = 48\nvalue = [0, 0, 25, 21, 1, 1, 0]\nclass = a", fillcolor="#e2fbe5"] ;
478 -> 479 ;
480 [label="residual sugar <= 6.45\ngini = 0.46\nsamples = 13\nvalue = [0, 0, 3, 9, 0, 1, 0]\nclass = l", fillcolor="#88efee"] ;
479 -> 480 ;
481 [label="sulphates <= 0.56\ngini = 0.31\nsamples = 11\nvalue = [0, 0, 1, 9, 0, 1, 0]\nclass = l", fillcolor="#61eae8"] ;
480 -> 481 ;
482 [label="total sulfur dioxide <= 151.0\ngini = 0.18\nsamples = 10\nvalue = [0, 0, 1, 9, 0, 0, 0]\nclass = l", fillcolor="#4fe8e5"] ;
481 -> 482 ;
483 [label="fixed acidity <= 5.85\ngini = 0.5\nsamples = 2\nvalue = [0, 0, 1, 1, 0, 0, 0]\nclass = a", fillcolor="#ffffff"] ;
482 -> 483 ;
484 [label="gini = 0.0\nsamples = 1\nvalue = [0, 0, 1, 0, 0, 0, 0]\nclass = a", fillcolor="#39e54d"] ;
483 -> 484 ;
485 [label="gini = 0.0\nsamples = 1\nvalue = [0, 0, 0, 1, 0, 0, 0]\nclass = l", fillcolor="#39e5e2"] ;
483 -> 485 ;
486 [label="gini = 0.0\nsamples = 8\nvalue = [0, 0, 0, 8, 0, 0, 0]\nclass = l", fillcolor="#39e5e2"] ;
482 -> 486 ;
487 [label="gini = 0.0\nsamples = 1\nvalue = [0, 0, 0, 0, 0, 1, 0]\nclass = t", fillcolor="#b139e5"] ;
481 -> 487 ;
488 [label="gini = 0.0\nsamples = 2\nvalue = [0, 0, 2, 0, 0, 0, 0]\nclass = a", fillcolor="#39e54d"] ;
480 -> 488 ;
489 [label="free sulfur dioxide <= 61.5\ngini = 0.49\nsamples = 35\nvalue = [0, 0, 22, 12, 1, 0, 0]\nclass = a", fillcolor="#a9f4b2"] ;
479 -> 489 ;
490 [label="residual sugar <= 7.05\ngini = 0.43\nsamples = 31\nvalue = [0, 0, 22, 8, 1, 0, 0]\nclass = a", fillcolor="#86ef93"] ;
489 -> 490 ;
491 [label="sulphates <= 0.68\ngini = 0.3\nsamples = 23\nvalue = [0, 0, 19, 3, 1, 0, 0]\nclass = a", fillcolor="#61ea71"] ;
490 -> 491 ;
492 [label="pH <= 3.02\ngini = 0.19\nsamples = 20\nvalue = [0, 0, 18, 1, 1, 0, 0]\nclass = a", fillcolor="#4ee860"] ;
491 -> 492 ;
493 [label="gini = 0.0\nsamples = 1\nvalue = [0, 0, 0, 0, 1, 0, 0]\nclass = i", fillcolor="#3956e5"] ;
492 -> 493 ;
494 [label="citric acid <= 0.25\ngini = 0.1\nsamples = 19\nvalue = [0, 0, 18, 1, 0, 0, 0]\nclass = a", fillcolor="#44e657"] ;
492 -> 494 ;
495 [label="gini = 0.0\nsamples = 1\nvalue = [0, 0, 0, 1, 0, 0, 0]\nclass = l", fillcolor="#39e5e2"] ;
494 -> 495 ;
496 [label="gini = 0.0\nsamples = 18\nvalue = [0, 0, 18, 0, 0, 0, 0]\nclass = a", fillcolor="#39e54d"] ;
494 -> 496 ;
497 [label="alcohol <= 9.45\ngini = 0.44\nsamples = 3\nvalue = [0, 0, 1, 2, 0, 0, 0]\nclass = l", fillcolor="#9cf2f0"] ;
491 -> 497 ;
498 [label="gini = 0.0\nsamples = 2\nvalue = [0, 0, 0, 2, 0, 0, 0]\nclass = l", fillcolor="#39e5e2"] ;
497 -> 498 ;
499 [label="gini = 0.0\nsamples = 1\nvalue = [0, 0, 1, 0, 0, 0, 0]\nclass = a", fillcolor="#39e54d"] ;
497 -> 499 ;
500 [label="volatile acidity <= 0.28\ngini = 0.47\nsamples = 8\nvalue = [0, 0, 3, 5, 0, 0, 0]\nclass = l", fillcolor="#b0f5f3"] ;
490 -> 500 ;
501 [label="gini = 0.0\nsamples = 4\nvalue = [0, 0, 0, 4, 0, 0, 0]\nclass = l", fillcolor="#39e5e2"] ;
500 -> 501 ;
502 [label="total sulfur dioxide <= 213.0\ngini = 0.38\nsamples = 4\nvalue = [0, 0, 3, 1, 0, 0, 0]\nclass = a", fillcolor="#7bee88"] ;
500 -> 502 ;
503 [label="gini = 0.0\nsamples = 3\nvalue = [0, 0, 3, 0, 0, 0, 0]\nclass = a", fillcolor="#39e54d"] ;
502 -> 503 ;
504 [label="gini = 0.0\nsamples = 1\nvalue = [0, 0, 0, 1, 0, 0, 0]\nclass = l", fillcolor="#39e5e2"] ;
502 -> 504 ;
505 [label="gini = 0.0\nsamples = 4\nvalue = [0, 0, 0, 4, 0, 0, 0]\nclass = l", fillcolor="#39e5e2"] ;
489 -> 505 ;
506 [label="gini = 0.0\nsamples = 6\nvalue = [0, 0, 0, 6, 0, 0, 0]\nclass = l", fillcolor="#39e5e2"] ;
478 -> 506 ;
507 [label="alcohol <= 9.65\ngini = 0.47\nsamples = 117\nvalue = [0, 4, 79, 31, 3, 0, 0]\nclass = a", fillcolor="#90f09c"] ;
477 -> 507 ;
508 [label="alcohol <= 9.45\ngini = 0.44\nsamples = 114\nvalue = [0, 4, 79, 31, 0, 0, 0]\nclass = a", fillcolor="#8cf098"] ;
507 -> 508 ;
509 [label="citric acid <= 0.65\ngini = 0.38\nsamples = 75\nvalue = [0, 4, 57, 14, 0, 0, 0]\nclass = a", fillcolor="#73ed82"] ;
508 -> 509 ;
510 [label="density <= 1.0\ngini = 0.36\nsamples = 73\nvalue = [0, 4, 57, 12, 0, 0, 0]\nclass = a", fillcolor="#6dec7c"] ;
509 -> 510 ;
511 [label="gini = 0.0\nsamples = 1\nvalue = [0, 1, 0, 0, 0, 0, 0]\nclass = u", fillcolor="#b7e539"] ;
510 -> 511 ;
512 [label="density <= 1.0\ngini = 0.34\nsamples = 72\nvalue = [0, 3, 57, 12, 0, 0, 0]\nclass = a", fillcolor="#6aec7a"] ;
510 -> 512 ;
513 [label="density <= 1.0\ngini = 0.41\nsamples = 57\nvalue = [0, 3, 42, 12, 0, 0, 0]\nclass = a", fillcolor="#7bee88"] ;
512 -> 513 ;
514 [label="total sulfur dioxide <= 144.0\ngini = 0.34\nsamples = 53\nvalue = [0, 2, 42, 9, 0, 0, 0]\nclass = a", fillcolor="#6aec79"] ;
513 -> 514 ;
515 [label="total sulfur dioxide <= 135.5\ngini = 0.44\nsamples = 3\nvalue = [0, 0, 1, 2, 0, 0, 0]\nclass = l", fillcolor="#9cf2f0"] ;
514 -> 515 ;
516 [label="gini = 0.0\nsamples = 1\nvalue = [0, 0, 1, 0, 0, 0, 0]\nclass = a", fillcolor="#39e54d"] ;
515 -> 516 ;
517 [label="gini = 0.0\nsamples = 2\nvalue = [0, 0, 0, 2, 0, 0, 0]\nclass = l", fillcolor="#39e5e2"] ;
515 -> 517 ;
518 [label="total sulfur dioxide <= 238.5\ngini = 0.31\nsamples = 50\nvalue = [0, 2, 41, 7, 0, 0, 0]\nclass = a", fillcolor="#62ea72"] ;
514 -> 518 ;
519 [label="fixed acidity <= 6.75\ngini = 0.28\nsamples = 49\nvalue = [0, 2, 41, 6, 0, 0, 0]\nclass = a", fillcolor="#5eea6e"] ;
518 -> 519 ;
520 [label="residual sugar <= 7.55\ngini = 0.36\nsamples = 36\nvalue = [0, 2, 28, 6, 0, 0, 0]\nclass = a", fillcolor="#6eec7c"] ;
519 -> 520 ;
521 [label="gini = 0.0\nsamples = 1\nvalue = [0, 0, 0, 1, 0, 0, 0]\nclass = l", fillcolor="#39e5e2"] ;
520 -> 521 ;
522 [label="chlorides <= 0.05\ngini = 0.34\nsamples = 35\nvalue = [0, 2, 28, 5, 0, 0, 0]\nclass = a", fillcolor="#67eb77"] ;
520 -> 522 ;
523 [label="citric acid <= 0.3\ngini = 0.17\nsamples = 22\nvalue = [0, 1, 20, 1, 0, 0, 0]\nclass = a", fillcolor="#4ce75e"] ;
522 -> 523 ;
524 [label="volatile acidity <= 0.27\ngini = 0.62\nsamples = 4\nvalue = [0, 1, 2, 1, 0, 0, 0]\nclass = a", fillcolor="#bdf6c4"] ;
523 -> 524 ;
525 [label="gini = 0.0\nsamples = 2\nvalue = [0, 0, 2, 0, 0, 0, 0]\nclass = a", fillcolor="#39e54d"] ;
524 -> 525 ;
526 [label="total sulfur dioxide <= 190.0\ngini = 0.5\nsamples = 2\nvalue = [0, 1, 0, 1, 0, 0, 0]\nclass = u", fillcolor="#ffffff"] ;
524 -> 526 ;
527 [label="gini = 0.0\nsamples = 1\nvalue = [0, 0, 0, 1, 0, 0, 0]\nclass = l", fillcolor="#39e5e2"] ;
526 -> 527 ;
528 [label="gini = 0.0\nsamples = 1\nvalue = [0, 1, 0, 0, 0, 0, 0]\nclass = u", fillcolor="#b7e539"] ;
526 -> 528 ;
529 [label="gini = 0.0\nsamples = 18\nvalue = [0, 0, 18, 0, 0, 0, 0]\nclass = a", fillcolor="#39e54d"] ;
523 -> 529 ;
530 [label="alcohol <= 8.95\ngini = 0.52\nsamples = 13\nvalue = [0, 1, 8, 4, 0, 0, 0]\nclass = a", fillcolor="#a7f3b0"] ;
522 -> 530 ;
531 [label="gini = 0.0\nsamples = 2\nvalue = [0, 0, 0, 2, 0, 0, 0]\nclass = l", fillcolor="#39e5e2"] ;
530 -> 531 ;
532 [label="chlorides <= 0.05\ngini = 0.43\nsamples = 11\nvalue = [0, 1, 8, 2, 0, 0, 0]\nclass = a", fillcolor="#7bee88"] ;
530 -> 532 ;
533 [label="gini = 0.0\nsamples = 2\nvalue = [0, 0, 0, 2, 0, 0, 0]\nclass = l", fillcolor="#39e5e2"] ;
532 -> 533 ;
534 [label="free sulfur dioxide <= 60.5\ngini = 0.2\nsamples = 9\nvalue = [0, 1, 8, 0, 0, 0, 0]\nclass = a", fillcolor="#52e863"] ;
532 -> 534 ;
535 [label="gini = 0.0\nsamples = 7\nvalue = [0, 0, 7, 0, 0, 0, 0]\nclass = a", fillcolor="#39e54d"] ;
534 -> 535 ;
536 [label="pH <= 3.02\ngini = 0.5\nsamples = 2\nvalue = [0, 1, 1, 0, 0, 0, 0]\nclass = u", fillcolor="#ffffff"] ;
534 -> 536 ;
537 [label="gini = 0.0\nsamples = 1\nvalue = [0, 0, 1, 0, 0, 0, 0]\nclass = a", fillcolor="#39e54d"] ;
536 -> 537 ;
538 [label="gini = 0.0\nsamples = 1\nvalue = [0, 1, 0, 0, 0, 0, 0]\nclass = u", fillcolor="#b7e539"] ;
536 -> 538 ;
539 [label="gini = 0.0\nsamples = 13\nvalue = [0, 0, 13, 0, 0, 0, 0]\nclass = a", fillcolor="#39e54d"] ;
519 -> 539 ;
540 [label="gini = 0.0\nsamples = 1\nvalue = [0, 0, 0, 1, 0, 0, 0]\nclass = l", fillcolor="#39e5e2"] ;
518 -> 540 ;
541 [label="chlorides <= 0.05\ngini = 0.38\nsamples = 4\nvalue = [0, 1, 0, 3, 0, 0, 0]\nclass = l", fillcolor="#7beeec"] ;
513 -> 541 ;
542 [label="gini = 0.0\nsamples = 3\nvalue = [0, 0, 0, 3, 0, 0, 0]\nclass = l", fillcolor="#39e5e2"] ;
541 -> 542 ;
543 [label="gini = 0.0\nsamples = 1\nvalue = [0, 1, 0, 0, 0, 0, 0]\nclass = u", fillcolor="#b7e539"] ;
541 -> 543 ;
544 [label="gini = 0.0\nsamples = 15\nvalue = [0, 0, 15, 0, 0, 0, 0]\nclass = a", fillcolor="#39e54d"] ;
512 -> 544 ;
545 [label="gini = 0.0\nsamples = 2\nvalue = [0, 0, 0, 2, 0, 0, 0]\nclass = l", fillcolor="#39e5e2"] ;
509 -> 545 ;
546 [label="volatile acidity <= 0.28\ngini = 0.49\nsamples = 39\nvalue = [0, 0, 22, 17, 0, 0, 0]\nclass = a", fillcolor="#d2f9d7"] ;
508 -> 546 ;
547 [label="free sulfur dioxide <= 30.5\ngini = 0.46\nsamples = 33\nvalue = [0, 0, 21, 12, 0, 0, 0]\nclass = a", fillcolor="#aaf4b3"] ;
546 -> 547 ;
548 [label="gini = 0.0\nsamples = 2\nvalue = [0, 0, 0, 2, 0, 0, 0]\nclass = l", fillcolor="#39e5e2"] ;
547 -> 548 ;
549 [label="sulphates <= 0.45\ngini = 0.44\nsamples = 31\nvalue = [0, 0, 21, 10, 0, 0, 0]\nclass = a", fillcolor="#97f1a2"] ;
547 -> 549 ;
550 [label="gini = 0.0\nsamples = 8\nvalue = [0, 0, 8, 0, 0, 0, 0]\nclass = a", fillcolor="#39e54d"] ;
549 -> 550 ;
551 [label="total sulfur dioxide <= 193.0\ngini = 0.49\nsamples = 23\nvalue = [0, 0, 13, 10, 0, 0, 0]\nclass = a", fillcolor="#d1f9d6"] ;
549 -> 551 ;
552 [label="citric acid <= 0.31\ngini = 0.44\nsamples = 9\nvalue = [0, 0, 3, 6, 0, 0, 0]\nclass = l", fillcolor="#9cf2f0"] ;
551 -> 552 ;
553 [label="total sulfur dioxide <= 156.5\ngini = 0.38\nsamples = 4\nvalue = [0, 0, 3, 1, 0, 0, 0]\nclass = a", fillcolor="#7bee88"] ;
552 -> 553 ;
554 [label="gini = 0.0\nsamples = 1\nvalue = [0, 0, 0, 1, 0, 0, 0]\nclass = l", fillcolor="#39e5e2"] ;
553 -> 554 ;
555 [label="gini = 0.0\nsamples = 3\nvalue = [0, 0, 3, 0, 0, 0, 0]\nclass = a", fillcolor="#39e54d"] ;
553 -> 555 ;
556 [label="gini = 0.0\nsamples = 5\nvalue = [0, 0, 0, 5, 0, 0, 0]\nclass = l", fillcolor="#39e5e2"] ;
552 -> 556 ;
557 [label="pH <= 3.23\ngini = 0.41\nsamples = 14\nvalue = [0, 0, 10, 4, 0, 0, 0]\nclass = a", fillcolor="#88ef94"] ;
551 -> 557 ;
558 [label="residual sugar <= 7.95\ngini = 0.17\nsamples = 11\nvalue = [0, 0, 10, 1, 0, 0, 0]\nclass = a", fillcolor="#4de85f"] ;
557 -> 558 ;
559 [label="gini = 0.0\nsamples = 1\nvalue = [0, 0, 0, 1, 0, 0, 0]\nclass = l", fillcolor="#39e5e2"] ;
558 -> 559 ;
560 [label="gini = 0.0\nsamples = 10\nvalue = [0, 0, 10, 0, 0, 0, 0]\nclass = a", fillcolor="#39e54d"] ;
558 -> 560 ;
561 [label="gini = 0.0\nsamples = 3\nvalue = [0, 0, 0, 3, 0, 0, 0]\nclass = l", fillcolor="#39e5e2"] ;
557 -> 561 ;
562 [label="density <= 1.0\ngini = 0.28\nsamples = 6\nvalue = [0, 0, 1, 5, 0, 0, 0]\nclass = l", fillcolor="#61eae8"] ;
546 -> 562 ;
563 [label="volatile acidity <= 0.3\ngini = 0.5\nsamples = 2\nvalue = [0, 0, 1, 1, 0, 0, 0]\nclass = a", fillcolor="#ffffff"] ;
562 -> 563 ;
564 [label="gini = 0.0\nsamples = 1\nvalue = [0, 0, 0, 1, 0, 0, 0]\nclass = l", fillcolor="#39e5e2"] ;
563 -> 564 ;
565 [label="gini = 0.0\nsamples = 1\nvalue = [0, 0, 1, 0, 0, 0, 0]\nclass = a", fillcolor="#39e54d"] ;
563 -> 565 ;
566 [label="gini = 0.0\nsamples = 4\nvalue = [0, 0, 0, 4, 0, 0, 0]\nclass = l", fillcolor="#39e5e2"] ;
562 -> 566 ;
567 [label="gini = 0.0\nsamples = 3\nvalue = [0, 0, 0, 0, 3, 0, 0]\nclass = i", fillcolor="#3956e5"] ;
507 -> 567 ;
568 [label="fixed acidity <= 7.45\ngini = 0.64\nsamples = 123\nvalue = [0, 5, 48, 54, 16, 0, 0]\nclass = l", fillcolor="#effdfd"] ;
476 -> 568 ;
569 [label="sulphates <= 0.39\ngini = 0.64\nsamples = 79\nvalue = [0, 1, 24, 38, 16, 0, 0]\nclass = l", fillcolor="#cdf8f8"] ;
568 -> 569 ;
570 [label="residual sugar <= 13.6\ngini = 0.42\nsamples = 10\nvalue = [0, 0, 7, 0, 3, 0, 0]\nclass = a", fillcolor="#8ef099"] ;
569 -> 570 ;
571 [label="gini = 0.0\nsamples = 7\nvalue = [0, 0, 7, 0, 0, 0, 0]\nclass = a", fillcolor="#39e54d"] ;
570 -> 571 ;
572 [label="gini = 0.0\nsamples = 3\nvalue = [0, 0, 0, 0, 3, 0, 0]\nclass = i", fillcolor="#3956e5"] ;
570 -> 572 ;
573 [label="free sulfur dioxide <= 35.5\ngini = 0.6\nsamples = 69\nvalue = [0, 1, 17, 38, 13, 0, 0]\nclass = l", fillcolor="#aff4f3"] ;
569 -> 573 ;
574 [label="chlorides <= 0.05\ngini = 0.53\nsamples = 11\nvalue = [0, 0, 2, 2, 7, 0, 0]\nclass = i", fillcolor="#91a1f1"] ;
573 -> 574 ;
575 [label="residual sugar <= 4.95\ngini = 0.5\nsamples = 4\nvalue = [0, 0, 2, 2, 0, 0, 0]\nclass = a", fillcolor="#ffffff"] ;
574 -> 575 ;
576 [label="gini = 0.0\nsamples = 2\nvalue = [0, 0, 0, 2, 0, 0, 0]\nclass = l", fillcolor="#39e5e2"] ;
575 -> 576 ;
577 [label="gini = 0.0\nsamples = 2\nvalue = [0, 0, 2, 0, 0, 0, 0]\nclass = a", fillcolor="#39e54d"] ;
575 -> 577 ;
578 [label="gini = 0.0\nsamples = 7\nvalue = [0, 0, 0, 0, 7, 0, 0]\nclass = i", fillcolor="#3956e5"] ;
574 -> 578 ;
579 [label="chlorides <= 0.04\ngini = 0.54\nsamples = 58\nvalue = [0, 1, 15, 36, 6, 0, 0]\nclass = l", fillcolor="#9ef2f1"] ;
573 -> 579 ;
580 [label="free sulfur dioxide <= 59.0\ngini = 0.44\nsamples = 6\nvalue = [0, 0, 4, 0, 2, 0, 0]\nclass = a", fillcolor="#9cf2a6"] ;
579 -> 580 ;
581 [label="gini = 0.0\nsamples = 4\nvalue = [0, 0, 4, 0, 0, 0, 0]\nclass = a", fillcolor="#39e54d"] ;
580 -> 581 ;
582 [label="gini = 0.0\nsamples = 2\nvalue = [0, 0, 0, 0, 2, 0, 0]\nclass = i", fillcolor="#3956e5"] ;
580 -> 582 ;
583 [label="citric acid <= 0.37\ngini = 0.47\nsamples = 52\nvalue = [0, 1, 11, 36, 4, 0, 0]\nclass = l", fillcolor="#86efed"] ;
579 -> 583 ;
584 [label="citric acid <= 0.3\ngini = 0.1\nsamples = 19\nvalue = [0, 0, 1, 18, 0, 0, 0]\nclass = l", fillcolor="#44e6e4"] ;
583 -> 584 ;
585 [label="free sulfur dioxide <= 44.0\ngini = 0.44\nsamples = 3\nvalue = [0, 0, 1, 2, 0, 0, 0]\nclass = l", fillcolor="#9cf2f0"] ;
584 -> 585 ;
586 [label="gini = 0.0\nsamples = 1\nvalue = [0, 0, 1, 0, 0, 0, 0]\nclass = a", fillcolor="#39e54d"] ;
585 -> 586 ;
587 [label="gini = 0.0\nsamples = 2\nvalue = [0, 0, 0, 2, 0, 0, 0]\nclass = l", fillcolor="#39e5e2"] ;
585 -> 587 ;
588 [label="gini = 0.0\nsamples = 16\nvalue = [0, 0, 0, 16, 0, 0, 0]\nclass = l", fillcolor="#39e5e2"] ;
584 -> 588 ;
589 [label="free sulfur dioxide <= 59.5\ngini = 0.6\nsamples = 33\nvalue = [0, 1, 10, 18, 4, 0, 0]\nclass = l", fillcolor="#baf6f5"] ;
583 -> 589 ;
590 [label="pH <= 2.99\ngini = 0.65\nsamples = 26\nvalue = [0, 1, 10, 11, 4, 0, 0]\nclass = l", fillcolor="#f3fdfd"] ;
589 -> 590 ;
591 [label="fixed acidity <= 6.95\ngini = 0.35\nsamples = 9\nvalue = [0, 0, 2, 7, 0, 0, 0]\nclass = l", fillcolor="#72ecea"] ;
590 -> 591 ;
592 [label="gini = 0.0\nsamples = 2\nvalue = [0, 0, 2, 0, 0, 0, 0]\nclass = a", fillcolor="#39e54d"] ;
591 -> 592 ;
593 [label="gini = 0.0\nsamples = 7\nvalue = [0, 0, 0, 7, 0, 0, 0]\nclass = l", fillcolor="#39e5e2"] ;
591 -> 593 ;
594 [label="sulphates <= 0.48\ngini = 0.66\nsamples = 17\nvalue = [0, 1, 8, 4, 4, 0, 0]\nclass = a", fillcolor="#c2f7c8"] ;
590 -> 594 ;
595 [label="gini = 0.0\nsamples = 4\nvalue = [0, 0, 4, 0, 0, 0, 0]\nclass = a", fillcolor="#39e54d"] ;
594 -> 595 ;
596 [label="residual sugar <= 9.55\ngini = 0.71\nsamples = 13\nvalue = [0, 1, 4, 4, 4, 0, 0]\nclass = a", fillcolor="#ffffff"] ;
594 -> 596 ;
597 [label="sulphates <= 0.52\ngini = 0.56\nsamples = 5\nvalue = [0, 1, 1, 3, 0, 0, 0]\nclass = l", fillcolor="#9cf2f0"] ;
596 -> 597 ;
598 [label="free sulfur dioxide <= 45.5\ngini = 0.5\nsamples = 2\nvalue = [0, 1, 1, 0, 0, 0, 0]\nclass = u", fillcolor="#ffffff"] ;
597 -> 598 ;
599 [label="gini = 0.0\nsamples = 1\nvalue = [0, 1, 0, 0, 0, 0, 0]\nclass = u", fillcolor="#b7e539"] ;
598 -> 599 ;
600 [label="gini = 0.0\nsamples = 1\nvalue = [0, 0, 1, 0, 0, 0, 0]\nclass = a", fillcolor="#39e54d"] ;
598 -> 600 ;
601 [label="gini = 0.0\nsamples = 3\nvalue = [0, 0, 0, 3, 0, 0, 0]\nclass = l", fillcolor="#39e5e2"] ;
597 -> 601 ;
602 [label="total sulfur dioxide <= 177.5\ngini = 0.59\nsamples = 8\nvalue = [0, 0, 3, 1, 4, 0, 0]\nclass = i", fillcolor="#d7ddfa"] ;
596 -> 602 ;
603 [label="gini = 0.0\nsamples = 3\nvalue = [0, 0, 0, 0, 3, 0, 0]\nclass = i", fillcolor="#3956e5"] ;
602 -> 603 ;
604 [label="chlorides <= 0.05\ngini = 0.56\nsamples = 5\nvalue = [0, 0, 3, 1, 1, 0, 0]\nclass = a", fillcolor="#9cf2a6"] ;
602 -> 604 ;
605 [label="alcohol <= 9.3\ngini = 0.5\nsamples = 2\nvalue = [0, 0, 0, 1, 1, 0, 0]\nclass = l", fillcolor="#ffffff"] ;
604 -> 605 ;
606 [label="gini = 0.0\nsamples = 1\nvalue = [0, 0, 0, 0, 1, 0, 0]\nclass = i", fillcolor="#3956e5"] ;
605 -> 606 ;
607 [label="gini = 0.0\nsamples = 1\nvalue = [0, 0, 0, 1, 0, 0, 0]\nclass = l", fillcolor="#39e5e2"] ;
605 -> 607 ;
608 [label="gini = 0.0\nsamples = 3\nvalue = [0, 0, 3, 0, 0, 0, 0]\nclass = a", fillcolor="#39e54d"] ;
604 -> 608 ;
609 [label="gini = 0.0\nsamples = 7\nvalue = [0, 0, 0, 7, 0, 0, 0]\nclass = l", fillcolor="#39e5e2"] ;
589 -> 609 ;
610 [label="chlorides <= 0.04\ngini = 0.56\nsamples = 44\nvalue = [0, 4, 24, 16, 0, 0, 0]\nclass = a", fillcolor="#c6f8cc"] ;
568 -> 610 ;
611 [label="free sulfur dioxide <= 55.5\ngini = 0.31\nsamples = 11\nvalue = [0, 1, 1, 9, 0, 0, 0]\nclass = l", fillcolor="#61eae8"] ;
610 -> 611 ;
612 [label="gini = 0.0\nsamples = 9\nvalue = [0, 0, 0, 9, 0, 0, 0]\nclass = l", fillcolor="#39e5e2"] ;
611 -> 612 ;
613 [label="citric acid <= 0.6\ngini = 0.5\nsamples = 2\nvalue = [0, 1, 1, 0, 0, 0, 0]\nclass = u", fillcolor="#ffffff"] ;
611 -> 613 ;
614 [label="gini = 0.0\nsamples = 1\nvalue = [0, 0, 1, 0, 0, 0, 0]\nclass = a", fillcolor="#39e54d"] ;
613 -> 614 ;
615 [label="gini = 0.0\nsamples = 1\nvalue = [0, 1, 0, 0, 0, 0, 0]\nclass = u", fillcolor="#b7e539"] ;
613 -> 615 ;
616 [label="sulphates <= 0.38\ngini = 0.46\nsamples = 33\nvalue = [0, 3, 23, 7, 0, 0, 0]\nclass = a", fillcolor="#85ef91"] ;
610 -> 616 ;
617 [label="gini = 0.0\nsamples = 2\nvalue = [0, 0, 0, 2, 0, 0, 0]\nclass = l", fillcolor="#39e5e2"] ;
616 -> 617 ;
618 [label="alcohol <= 9.55\ngini = 0.41\nsamples = 31\nvalue = [0, 3, 23, 5, 0, 0, 0]\nclass = a", fillcolor="#76ed84"] ;
616 -> 618 ;
619 [label="residual sugar <= 14.78\ngini = 0.35\nsamples = 29\nvalue = [0, 3, 23, 3, 0, 0, 0]\nclass = a", fillcolor="#67eb76"] ;
618 -> 619 ;
620 [label="sulphates <= 0.44\ngini = 0.23\nsamples = 23\nvalue = [0, 1, 20, 2, 0, 0, 0]\nclass = a", fillcolor="#55e966"] ;
619 -> 620 ;
621 [label="gini = 0.0\nsamples = 1\nvalue = [0, 0, 0, 1, 0, 0, 0]\nclass = l", fillcolor="#39e5e2"] ;
620 -> 621 ;
622 [label="free sulfur dioxide <= 29.0\ngini = 0.17\nsamples = 22\nvalue = [0, 1, 20, 1, 0, 0, 0]\nclass = a", fillcolor="#4ce75e"] ;
620 -> 622 ;
623 [label="gini = 0.0\nsamples = 1\nvalue = [0, 0, 0, 1, 0, 0, 0]\nclass = l", fillcolor="#39e5e2"] ;
622 -> 623 ;
624 [label="citric acid <= 0.58\ngini = 0.09\nsamples = 21\nvalue = [0, 1, 20, 0, 0, 0, 0]\nclass = a", fillcolor="#43e656"] ;
622 -> 624 ;
625 [label="gini = 0.0\nsamples = 18\nvalue = [0, 0, 18, 0, 0, 0, 0]\nclass = a", fillcolor="#39e54d"] ;
624 -> 625 ;
626 [label="citric acid <= 0.6\ngini = 0.44\nsamples = 3\nvalue = [0, 1, 2, 0, 0, 0, 0]\nclass = a", fillcolor="#9cf2a6"] ;
624 -> 626 ;
627 [label="gini = 0.0\nsamples = 1\nvalue = [0, 1, 0, 0, 0, 0, 0]\nclass = u", fillcolor="#b7e539"] ;
626 -> 627 ;
628 [label="gini = 0.0\nsamples = 2\nvalue = [0, 0, 2, 0, 0, 0, 0]\nclass = a", fillcolor="#39e54d"] ;
626 -> 628 ;
629 [label="citric acid <= 0.48\ngini = 0.61\nsamples = 6\nvalue = [0, 2, 3, 1, 0, 0, 0]\nclass = a", fillcolor="#cef8d2"] ;
619 -> 629 ;
630 [label="residual sugar <= 16.57\ngini = 0.48\nsamples = 5\nvalue = [0, 2, 3, 0, 0, 0, 0]\nclass = a", fillcolor="#bdf6c4"] ;
629 -> 630 ;
631 [label="sulphates <= 0.62\ngini = 0.44\nsamples = 3\nvalue = [0, 2, 1, 0, 0, 0, 0]\nclass = u", fillcolor="#dbf29c"] ;
630 -> 631 ;
632 [label="gini = 0.0\nsamples = 2\nvalue = [0, 2, 0, 0, 0, 0, 0]\nclass = u", fillcolor="#b7e539"] ;
631 -> 632 ;
633 [label="gini = 0.0\nsamples = 1\nvalue = [0, 0, 1, 0, 0, 0, 0]\nclass = a", fillcolor="#39e54d"] ;
631 -> 633 ;
634 [label="gini = 0.0\nsamples = 2\nvalue = [0, 0, 2, 0, 0, 0, 0]\nclass = a", fillcolor="#39e54d"] ;
630 -> 634 ;
635 [label="gini = 0.0\nsamples = 1\nvalue = [0, 0, 0, 1, 0, 0, 0]\nclass = l", fillcolor="#39e5e2"] ;
629 -> 635 ;
636 [label="gini = 0.0\nsamples = 2\nvalue = [0, 0, 0, 2, 0, 0, 0]\nclass = l", fillcolor="#39e5e2"] ;
618 -> 636 ;
637 [label="free sulfur dioxide <= 73.75\ngini = 0.41\nsamples = 19\nvalue = [0, 1, 4, 14, 0, 0, 0]\nclass = l", fillcolor="#7beeec"] ;
475 -> 637 ;
638 [label="gini = 0.0\nsamples = 11\nvalue = [0, 0, 0, 11, 0, 0, 0]\nclass = l", fillcolor="#39e5e2"] ;
637 -> 638 ;
639 [label="alcohol <= 9.45\ngini = 0.59\nsamples = 8\nvalue = [0, 1, 4, 3, 0, 0, 0]\nclass = a", fillcolor="#d7fadb"] ;
637 -> 639 ;
640 [label="total sulfur dioxide <= 180.5\ngini = 0.32\nsamples = 5\nvalue = [0, 0, 4, 1, 0, 0, 0]\nclass = a", fillcolor="#6aec79"] ;
639 -> 640 ;
641 [label="gini = 0.0\nsamples = 1\nvalue = [0, 0, 0, 1, 0, 0, 0]\nclass = l", fillcolor="#39e5e2"] ;
640 -> 641 ;
642 [label="gini = 0.0\nsamples = 4\nvalue = [0, 0, 4, 0, 0, 0, 0]\nclass = a", fillcolor="#39e54d"] ;
640 -> 642 ;
643 [label="sulphates <= 0.52\ngini = 0.44\nsamples = 3\nvalue = [0, 1, 0, 2, 0, 0, 0]\nclass = l", fillcolor="#9cf2f0"] ;
639 -> 643 ;
644 [label="gini = 0.0\nsamples = 2\nvalue = [0, 0, 0, 2, 0, 0, 0]\nclass = l", fillcolor="#39e5e2"] ;
643 -> 644 ;
645 [label="gini = 0.0\nsamples = 1\nvalue = [0, 1, 0, 0, 0, 0, 0]\nclass = u", fillcolor="#b7e539"] ;
643 -> 645 ;
646 [label="pH <= 3.06\ngini = 0.44\nsamples = 461\nvalue = [3, 28, 329, 97, 4, 0, 0]\nclass = a", fillcolor="#81ee8e"] ;
428 -> 646 ;
647 [label="volatile acidity <= 0.36\ngini = 0.25\nsamples = 102\nvalue = [1, 3, 88, 9, 1, 0, 0]\nclass = a", fillcolor="#57e968"] ;
646 -> 647 ;
648 [label="density <= 1.0\ngini = 0.04\nsamples = 51\nvalue = [0, 0, 50, 1, 0, 0, 0]\nclass = a", fillcolor="#3de651"] ;
647 -> 648 ;
649 [label="gini = 0.0\nsamples = 40\nvalue = [0, 0, 40, 0, 0, 0, 0]\nclass = a", fillcolor="#39e54d"] ;
648 -> 649 ;
650 [label="density <= 1.0\ngini = 0.17\nsamples = 11\nvalue = [0, 0, 10, 1, 0, 0, 0]\nclass = a", fillcolor="#4de85f"] ;
648 -> 650 ;
651 [label="gini = 0.0\nsamples = 1\nvalue = [0, 0, 0, 1, 0, 0, 0]\nclass = l", fillcolor="#39e5e2"] ;
650 -> 651 ;
652 [label="gini = 0.0\nsamples = 10\nvalue = [0, 0, 10, 0, 0, 0, 0]\nclass = a", fillcolor="#39e54d"] ;
650 -> 652 ;
653 [label="sulphates <= 0.57\ngini = 0.42\nsamples = 51\nvalue = [1, 3, 38, 8, 1, 0, 0]\nclass = a", fillcolor="#75ed83"] ;
647 -> 653 ;
654 [label="pH <= 3.05\ngini = 0.21\nsamples = 34\nvalue = [0, 2, 30, 2, 0, 0, 0]\nclass = a", fillcolor="#52e863"] ;
653 -> 654 ;
655 [label="pH <= 2.81\ngini = 0.06\nsamples = 31\nvalue = [0, 0, 30, 1, 0, 0, 0]\nclass = a", fillcolor="#40e653"] ;
654 -> 655 ;
656 [label="gini = 0.0\nsamples = 1\nvalue = [0, 0, 0, 1, 0, 0, 0]\nclass = l", fillcolor="#39e5e2"] ;
655 -> 656 ;
657 [label="gini = 0.0\nsamples = 30\nvalue = [0, 0, 30, 0, 0, 0, 0]\nclass = a", fillcolor="#39e54d"] ;
655 -> 657 ;
658 [label="chlorides <= 0.06\ngini = 0.44\nsamples = 3\nvalue = [0, 2, 0, 1, 0, 0, 0]\nclass = u", fillcolor="#dbf29c"] ;
654 -> 658 ;
659 [label="gini = 0.0\nsamples = 2\nvalue = [0, 2, 0, 0, 0, 0, 0]\nclass = u", fillcolor="#b7e539"] ;
658 -> 659 ;
660 [label="gini = 0.0\nsamples = 1\nvalue = [0, 0, 0, 1, 0, 0, 0]\nclass = l", fillcolor="#39e5e2"] ;
658 -> 660 ;
661 [label="sulphates <= 0.62\ngini = 0.64\nsamples = 17\nvalue = [1, 1, 8, 6, 1, 0, 0]\nclass = a", fillcolor="#dbfadf"] ;
653 -> 661 ;
662 [label="volatile acidity <= 0.37\ngini = 0.28\nsamples = 6\nvalue = [0, 0, 0, 5, 1, 0, 0]\nclass = l", fillcolor="#61eae8"] ;
661 -> 662 ;
663 [label="gini = 0.0\nsamples = 1\nvalue = [0, 0, 0, 0, 1, 0, 0]\nclass = i", fillcolor="#3956e5"] ;
662 -> 663 ;
664 [label="gini = 0.0\nsamples = 5\nvalue = [0, 0, 0, 5, 0, 0, 0]\nclass = l", fillcolor="#39e5e2"] ;
662 -> 664 ;
665 [label="pH <= 2.93\ngini = 0.45\nsamples = 11\nvalue = [1, 1, 8, 1, 0, 0, 0]\nclass = a", fillcolor="#74ed82"] ;
661 -> 665 ;
666 [label="pH <= 2.89\ngini = 0.5\nsamples = 2\nvalue = [1, 1, 0, 0, 0, 0, 0]\nclass = q", fillcolor="#ffffff"] ;
665 -> 666 ;
667 [label="gini = 0.0\nsamples = 1\nvalue = [1, 0, 0, 0, 0, 0, 0]\nclass = q", fillcolor="#e58139"] ;
666 -> 667 ;
668 [label="gini = 0.0\nsamples = 1\nvalue = [0, 1, 0, 0, 0, 0, 0]\nclass = u", fillcolor="#b7e539"] ;
666 -> 668 ;
669 [label="free sulfur dioxide <= 21.5\ngini = 0.2\nsamples = 9\nvalue = [0, 0, 8, 1, 0, 0, 0]\nclass = a", fillcolor="#52e863"] ;
665 -> 669 ;
670 [label="gini = 0.0\nsamples = 1\nvalue = [0, 0, 0, 1, 0, 0, 0]\nclass = l", fillcolor="#39e5e2"] ;
669 -> 670 ;
671 [label="gini = 0.0\nsamples = 8\nvalue = [0, 0, 8, 0, 0, 0, 0]\nclass = a", fillcolor="#39e54d"] ;
669 -> 671 ;
672 [label="residual sugar <= 16.77\ngini = 0.48\nsamples = 359\nvalue = [2, 25, 241, 88, 3, 0, 0]\nclass = a", fillcolor="#8ff09b"] ;
646 -> 672 ;
673 [label="volatile acidity <= 0.48\ngini = 0.47\nsamples = 343\nvalue = [2, 25, 235, 78, 3, 0, 0]\nclass = a", fillcolor="#8af096"] ;
672 -> 673 ;
674 [label="density <= 0.99\ngini = 0.43\nsamples = 293\nvalue = [1, 12, 210, 67, 3, 0, 0]\nclass = a", fillcolor="#82ef8e"] ;
673 -> 674 ;
675 [label="free sulfur dioxide <= 45.5\ngini = 0.52\nsamples = 15\nvalue = [0, 1, 5, 9, 0, 0, 0]\nclass = l", fillcolor="#b0f5f3"] ;
674 -> 675 ;
676 [label="volatile acidity <= 0.41\ngini = 0.4\nsamples = 12\nvalue = [0, 1, 2, 9, 0, 0, 0]\nclass = l", fillcolor="#74edeb"] ;
675 -> 676 ;
677 [label="pH <= 3.1\ngini = 0.2\nsamples = 9\nvalue = [0, 1, 0, 8, 0, 0, 0]\nclass = l", fillcolor="#52e8e6"] ;
676 -> 677 ;
678 [label="gini = 0.0\nsamples = 1\nvalue = [0, 1, 0, 0, 0, 0, 0]\nclass = u", fillcolor="#b7e539"] ;
677 -> 678 ;
679 [label="gini = 0.0\nsamples = 8\nvalue = [0, 0, 0, 8, 0, 0, 0]\nclass = l", fillcolor="#39e5e2"] ;
677 -> 679 ;
680 [label="density <= 0.99\ngini = 0.44\nsamples = 3\nvalue = [0, 0, 2, 1, 0, 0, 0]\nclass = a", fillcolor="#9cf2a6"] ;
676 -> 680 ;
681 [label="gini = 0.0\nsamples = 2\nvalue = [0, 0, 2, 0, 0, 0, 0]\nclass = a", fillcolor="#39e54d"] ;
680 -> 681 ;
682 [label="gini = 0.0\nsamples = 1\nvalue = [0, 0, 0, 1, 0, 0, 0]\nclass = l", fillcolor="#39e5e2"] ;
680 -> 682 ;
683 [label="gini = 0.0\nsamples = 3\nvalue = [0, 0, 3, 0, 0, 0, 0]\nclass = a", fillcolor="#39e54d"] ;
675 -> 683 ;
684 [label="citric acid <= 0.27\ngini = 0.41\nsamples = 278\nvalue = [1, 11, 205, 58, 3, 0, 0]\nclass = a", fillcolor="#7bee88"] ;
674 -> 684 ;
685 [label="chlorides <= 0.06\ngini = 0.34\nsamples = 115\nvalue = [1, 8, 92, 13, 1, 0, 0]\nclass = a", fillcolor="#66eb75"] ;
684 -> 685 ;
686 [label="fixed acidity <= 7.55\ngini = 0.25\nsamples = 93\nvalue = [1, 3, 80, 9, 0, 0, 0]\nclass = a", fillcolor="#58e969"] ;
685 -> 686 ;
687 [label="total sulfur dioxide <= 225.5\ngini = 0.21\nsamples = 86\nvalue = [1, 0, 76, 9, 0, 0, 0]\nclass = a", fillcolor="#53e864"] ;
686 -> 687 ;
688 [label="total sulfur dioxide <= 76.0\ngini = 0.16\nsamples = 80\nvalue = [1, 0, 73, 6, 0, 0, 0]\nclass = a", fillcolor="#4ce75e"] ;
687 -> 688 ;
689 [label="citric acid <= 0.11\ngini = 0.44\nsamples = 3\nvalue = [0, 0, 1, 2, 0, 0, 0]\nclass = l", fillcolor="#9cf2f0"] ;
688 -> 689 ;
690 [label="gini = 0.0\nsamples = 1\nvalue = [0, 0, 1, 0, 0, 0, 0]\nclass = a", fillcolor="#39e54d"] ;
689 -> 690 ;
691 [label="gini = 0.0\nsamples = 2\nvalue = [0, 0, 0, 2, 0, 0, 0]\nclass = l", fillcolor="#39e5e2"] ;
689 -> 691 ;
692 [label="chlorides <= 0.03\ngini = 0.12\nsamples = 77\nvalue = [1, 0, 72, 4, 0, 0, 0]\nclass = a", fillcolor="#47e759"] ;
688 -> 692 ;
693 [label="gini = 0.0\nsamples = 1\nvalue = [0, 0, 0, 1, 0, 0, 0]\nclass = l", fillcolor="#39e5e2"] ;
692 -> 693 ;
694 [label="free sulfur dioxide <= 9.5\ngini = 0.1\nsamples = 76\nvalue = [1, 0, 72, 3, 0, 0, 0]\nclass = a", fillcolor="#44e657"] ;
692 -> 694 ;
695 [label="citric acid <= 0.18\ngini = 0.44\nsamples = 3\nvalue = [1, 0, 2, 0, 0, 0, 0]\nclass = a", fillcolor="#9cf2a6"] ;
694 -> 695 ;
696 [label="gini = 0.0\nsamples = 2\nvalue = [0, 0, 2, 0, 0, 0, 0]\nclass = a", fillcolor="#39e54d"] ;
695 -> 696 ;
697 [label="gini = 0.0\nsamples = 1\nvalue = [1, 0, 0, 0, 0, 0, 0]\nclass = q", fillcolor="#e58139"] ;
695 -> 697 ;
698 [label="citric acid <= 0.25\ngini = 0.08\nsamples = 73\nvalue = [0, 0, 70, 3, 0, 0, 0]\nclass = a", fillcolor="#41e655"] ;
694 -> 698 ;
699 [label="volatile acidity <= 0.31\ngini = 0.03\nsamples = 60\nvalue = [0, 0, 59, 1, 0, 0, 0]\nclass = a", fillcolor="#3ce550"] ;
698 -> 699 ;
700 [label="total sulfur dioxide <= 172.0\ngini = 0.28\nsamples = 6\nvalue = [0, 0, 5, 1, 0, 0, 0]\nclass = a", fillcolor="#61ea71"] ;
699 -> 700 ;
701 [label="gini = 0.0\nsamples = 5\nvalue = [0, 0, 5, 0, 0, 0, 0]\nclass = a", fillcolor="#39e54d"] ;
700 -> 701 ;
702 [label="gini = 0.0\nsamples = 1\nvalue = [0, 0, 0, 1, 0, 0, 0]\nclass = l", fillcolor="#39e5e2"] ;
700 -> 702 ;
703 [label="gini = 0.0\nsamples = 54\nvalue = [0, 0, 54, 0, 0, 0, 0]\nclass = a", fillcolor="#39e54d"] ;
699 -> 703 ;
704 [label="sulphates <= 0.5\ngini = 0.26\nsamples = 13\nvalue = [0, 0, 11, 2, 0, 0, 0]\nclass = a", fillcolor="#5dea6d"] ;
698 -> 704 ;
705 [label="gini = 0.0\nsamples = 11\nvalue = [0, 0, 11, 0, 0, 0, 0]\nclass = a", fillcolor="#39e54d"] ;
704 -> 705 ;
706 [label="gini = 0.0\nsamples = 2\nvalue = [0, 0, 0, 2, 0, 0, 0]\nclass = l", fillcolor="#39e5e2"] ;
704 -> 706 ;
707 [label="alcohol <= 8.95\ngini = 0.5\nsamples = 6\nvalue = [0, 0, 3, 3, 0, 0, 0]\nclass = a", fillcolor="#ffffff"] ;
687 -> 707 ;
708 [label="chlorides <= 0.05\ngini = 0.38\nsamples = 4\nvalue = [0, 0, 3, 1, 0, 0, 0]\nclass = a", fillcolor="#7bee88"] ;
707 -> 708 ;
709 [label="gini = 0.0\nsamples = 3\nvalue = [0, 0, 3, 0, 0, 0, 0]\nclass = a", fillcolor="#39e54d"] ;
708 -> 709 ;
710 [label="gini = 0.0\nsamples = 1\nvalue = [0, 0, 0, 1, 0, 0, 0]\nclass = l", fillcolor="#39e5e2"] ;
708 -> 710 ;
711 [label="gini = 0.0\nsamples = 2\nvalue = [0, 0, 0, 2, 0, 0, 0]\nclass = l", fillcolor="#39e5e2"] ;
707 -> 711 ;
712 [label="pH <= 3.16\ngini = 0.49\nsamples = 7\nvalue = [0, 3, 4, 0, 0, 0, 0]\nclass = a", fillcolor="#cef8d2"] ;
686 -> 712 ;
713 [label="gini = 0.0\nsamples = 4\nvalue = [0, 0, 4, 0, 0, 0, 0]\nclass = a", fillcolor="#39e54d"] ;
712 -> 713 ;
714 [label="gini = 0.0\nsamples = 3\nvalue = [0, 3, 0, 0, 0, 0, 0]\nclass = u", fillcolor="#b7e539"] ;
712 -> 714 ;
715 [label="chlorides <= 0.06\ngini = 0.62\nsamples = 22\nvalue = [0, 5, 12, 4, 1, 0, 0]\nclass = a", fillcolor="#adf4b6"] ;
685 -> 715 ;
716 [label="pH <= 3.14\ngini = 0.66\nsamples = 8\nvalue = [0, 4, 1, 2, 1, 0, 0]\nclass = u", fillcolor="#e7f6bd"] ;
715 -> 716 ;
717 [label="gini = 0.0\nsamples = 4\nvalue = [0, 4, 0, 0, 0, 0, 0]\nclass = u", fillcolor="#b7e539"] ;
716 -> 717 ;
718 [label="pH <= 3.2\ngini = 0.62\nsamples = 4\nvalue = [0, 0, 1, 2, 1, 0, 0]\nclass = l", fillcolor="#bdf6f5"] ;
716 -> 718 ;
719 [label="gini = 0.0\nsamples = 2\nvalue = [0, 0, 0, 2, 0, 0, 0]\nclass = l", fillcolor="#39e5e2"] ;
718 -> 719 ;
720 [label="density <= 1.0\ngini = 0.5\nsamples = 2\nvalue = [0, 0, 1, 0, 1, 0, 0]\nclass = a", fillcolor="#ffffff"] ;
718 -> 720 ;
721 [label="gini = 0.0\nsamples = 1\nvalue = [0, 0, 0, 0, 1, 0, 0]\nclass = i", fillcolor="#3956e5"] ;
720 -> 721 ;
722 [label="gini = 0.0\nsamples = 1\nvalue = [0, 0, 1, 0, 0, 0, 0]\nclass = a", fillcolor="#39e54d"] ;
720 -> 722 ;
723 [label="sulphates <= 0.44\ngini = 0.36\nsamples = 14\nvalue = [0, 1, 11, 2, 0, 0, 0]\nclass = a", fillcolor="#6bec7a"] ;
715 -> 723 ;
724 [label="total sulfur dioxide <= 182.0\ngini = 0.44\nsamples = 3\nvalue = [0, 0, 1, 2, 0, 0, 0]\nclass = l", fillcolor="#9cf2f0"] ;
723 -> 724 ;
725 [label="gini = 0.0\nsamples = 2\nvalue = [0, 0, 0, 2, 0, 0, 0]\nclass = l", fillcolor="#39e5e2"] ;
724 -> 725 ;
726 [label="gini = 0.0\nsamples = 1\nvalue = [0, 0, 1, 0, 0, 0, 0]\nclass = a", fillcolor="#39e54d"] ;
724 -> 726 ;
727 [label="total sulfur dioxide <= 211.0\ngini = 0.17\nsamples = 11\nvalue = [0, 1, 10, 0, 0, 0, 0]\nclass = a", fillcolor="#4de85f"] ;
723 -> 727 ;
728 [label="gini = 0.0\nsamples = 9\nvalue = [0, 0, 9, 0, 0, 0, 0]\nclass = a", fillcolor="#39e54d"] ;
727 -> 728 ;
729 [label="total sulfur dioxide <= 226.0\ngini = 0.5\nsamples = 2\nvalue = [0, 1, 1, 0, 0, 0, 0]\nclass = u", fillcolor="#ffffff"] ;
727 -> 729 ;
730 [label="gini = 0.0\nsamples = 1\nvalue = [0, 1, 0, 0, 0, 0, 0]\nclass = u", fillcolor="#b7e539"] ;
729 -> 730 ;
731 [label="gini = 0.0\nsamples = 1\nvalue = [0, 0, 1, 0, 0, 0, 0]\nclass = a", fillcolor="#39e54d"] ;
729 -> 731 ;
732 [label="chlorides <= 0.04\ngini = 0.44\nsamples = 163\nvalue = [0, 3, 113, 45, 2, 0, 0]\nclass = a", fillcolor="#8df098"] ;
684 -> 732 ;
733 [label="alcohol <= 9.65\ngini = 0.41\nsamples = 7\nvalue = [0, 0, 2, 5, 0, 0, 0]\nclass = l", fillcolor="#88efee"] ;
732 -> 733 ;
734 [label="gini = 0.0\nsamples = 5\nvalue = [0, 0, 0, 5, 0, 0, 0]\nclass = l", fillcolor="#39e5e2"] ;
733 -> 734 ;
735 [label="gini = 0.0\nsamples = 2\nvalue = [0, 0, 2, 0, 0, 0, 0]\nclass = a", fillcolor="#39e54d"] ;
733 -> 735 ;
736 [label="fixed acidity <= 6.65\ngini = 0.43\nsamples = 156\nvalue = [0, 3, 111, 40, 2, 0, 0]\nclass = a", fillcolor="#86ef92"] ;
732 -> 736 ;
737 [label="density <= 1.0\ngini = 0.52\nsamples = 56\nvalue = [0, 1, 33, 20, 2, 0, 0]\nclass = a", fillcolor="#b8f6bf"] ;
736 -> 737 ;
738 [label="fixed acidity <= 6.55\ngini = 0.53\nsamples = 25\nvalue = [0, 0, 11, 13, 1, 0, 0]\nclass = l", fillcolor="#e3fbfb"] ;
737 -> 738 ;
739 [label="free sulfur dioxide <= 58.5\ngini = 0.53\nsamples = 20\nvalue = [0, 0, 11, 8, 1, 0, 0]\nclass = a", fillcolor="#cef8d2"] ;
738 -> 739 ;
740 [label="total sulfur dioxide <= 171.0\ngini = 0.55\nsamples = 16\nvalue = [0, 0, 7, 8, 1, 0, 0]\nclass = l", fillcolor="#e9fcfc"] ;
739 -> 740 ;
741 [label="volatile acidity <= 0.37\ngini = 0.54\nsamples = 10\nvalue = [0, 0, 6, 3, 1, 0, 0]\nclass = a", fillcolor="#aaf4b3"] ;
740 -> 741 ;
742 [label="citric acid <= 0.29\ngini = 0.61\nsamples = 6\nvalue = [0, 0, 2, 3, 1, 0, 0]\nclass = l", fillcolor="#cef8f8"] ;
741 -> 742 ;
743 [label="gini = 0.0\nsamples = 1\nvalue = [0, 0, 0, 0, 1, 0, 0]\nclass = i", fillcolor="#3956e5"] ;
742 -> 743 ;
744 [label="chlorides <= 0.14\ngini = 0.48\nsamples = 5\nvalue = [0, 0, 2, 3, 0, 0, 0]\nclass = l", fillcolor="#bdf6f5"] ;
742 -> 744 ;
745 [label="gini = 0.0\nsamples = 2\nvalue = [0, 0, 0, 2, 0, 0, 0]\nclass = l", fillcolor="#39e5e2"] ;
744 -> 745 ;
746 [label="volatile acidity <= 0.31\ngini = 0.44\nsamples = 3\nvalue = [0, 0, 2, 1, 0, 0, 0]\nclass = a", fillcolor="#9cf2a6"] ;
744 -> 746 ;
747 [label="gini = 0.0\nsamples = 1\nvalue = [0, 0, 0, 1, 0, 0, 0]\nclass = l", fillcolor="#39e5e2"] ;
746 -> 747 ;
748 [label="gini = 0.0\nsamples = 2\nvalue = [0, 0, 2, 0, 0, 0, 0]\nclass = a", fillcolor="#39e54d"] ;
746 -> 748 ;
749 [label="gini = 0.0\nsamples = 4\nvalue = [0, 0, 4, 0, 0, 0, 0]\nclass = a", fillcolor="#39e54d"] ;
741 -> 749 ;
750 [label="volatile acidity <= 0.33\ngini = 0.28\nsamples = 6\nvalue = [0, 0, 1, 5, 0, 0, 0]\nclass = l", fillcolor="#61eae8"] ;
740 -> 750 ;
751 [label="gini = 0.0\nsamples = 1\nvalue = [0, 0, 1, 0, 0, 0, 0]\nclass = a", fillcolor="#39e54d"] ;
750 -> 751 ;
752 [label="gini = 0.0\nsamples = 5\nvalue = [0, 0, 0, 5, 0, 0, 0]\nclass = l", fillcolor="#39e5e2"] ;
750 -> 752 ;
753 [label="gini = 0.0\nsamples = 4\nvalue = [0, 0, 4, 0, 0, 0, 0]\nclass = a", fillcolor="#39e54d"] ;
739 -> 753 ;
754 [label="gini = 0.0\nsamples = 5\nvalue = [0, 0, 0, 5, 0, 0, 0]\nclass = l", fillcolor="#39e5e2"] ;
738 -> 754 ;
755 [label="pH <= 3.15\ngini = 0.44\nsamples = 31\nvalue = [0, 1, 22, 7, 1, 0, 0]\nclass = a", fillcolor="#83ef90"] ;
737 -> 755 ;
756 [label="residual sugar <= 12.3\ngini = 0.5\nsamples = 10\nvalue = [0, 0, 5, 5, 0, 0, 0]\nclass = a", fillcolor="#ffffff"] ;
755 -> 756 ;
757 [label="alcohol <= 8.75\ngini = 0.28\nsamples = 6\nvalue = [0, 0, 5, 1, 0, 0, 0]\nclass = a", fillcolor="#61ea71"] ;
756 -> 757 ;
758 [label="gini = 0.0\nsamples = 1\nvalue = [0, 0, 0, 1, 0, 0, 0]\nclass = l", fillcolor="#39e5e2"] ;
757 -> 758 ;
759 [label="gini = 0.0\nsamples = 5\nvalue = [0, 0, 5, 0, 0, 0, 0]\nclass = a", fillcolor="#39e54d"] ;
757 -> 759 ;
760 [label="gini = 0.0\nsamples = 4\nvalue = [0, 0, 0, 4, 0, 0, 0]\nclass = l", fillcolor="#39e5e2"] ;
756 -> 760 ;
761 [label="free sulfur dioxide <= 14.0\ngini = 0.33\nsamples = 21\nvalue = [0, 1, 17, 2, 1, 0, 0]\nclass = a", fillcolor="#63ea72"] ;
755 -> 761 ;
762 [label="gini = 0.0\nsamples = 1\nvalue = [0, 1, 0, 0, 0, 0, 0]\nclass = u", fillcolor="#b7e539"] ;
761 -> 762 ;
763 [label="alcohol <= 9.6\ngini = 0.26\nsamples = 20\nvalue = [0, 0, 17, 2, 1, 0, 0]\nclass = a", fillcolor="#5ae96b"] ;
761 -> 763 ;
764 [label="chlorides <= 0.04\ngini = 0.19\nsamples = 19\nvalue = [0, 0, 17, 1, 1, 0, 0]\nclass = a", fillcolor="#4fe861"] ;
763 -> 764 ;
765 [label="volatile acidity <= 0.37\ngini = 0.5\nsamples = 2\nvalue = [0, 0, 1, 0, 1, 0, 0]\nclass = a", fillcolor="#ffffff"] ;
764 -> 765 ;
766 [label="gini = 0.0\nsamples = 1\nvalue = [0, 0, 0, 0, 1, 0, 0]\nclass = i", fillcolor="#3956e5"] ;
765 -> 766 ;
767 [label="gini = 0.0\nsamples = 1\nvalue = [0, 0, 1, 0, 0, 0, 0]\nclass = a", fillcolor="#39e54d"] ;
765 -> 767 ;
768 [label="total sulfur dioxide <= 219.0\ngini = 0.11\nsamples = 17\nvalue = [0, 0, 16, 1, 0, 0, 0]\nclass = a", fillcolor="#45e758"] ;
764 -> 768 ;
769 [label="gini = 0.0\nsamples = 14\nvalue = [0, 0, 14, 0, 0, 0, 0]\nclass = a", fillcolor="#39e54d"] ;
768 -> 769 ;
770 [label="sulphates <= 0.5\ngini = 0.44\nsamples = 3\nvalue = [0, 0, 2, 1, 0, 0, 0]\nclass = a", fillcolor="#9cf2a6"] ;
768 -> 770 ;
771 [label="gini = 0.0\nsamples = 2\nvalue = [0, 0, 2, 0, 0, 0, 0]\nclass = a", fillcolor="#39e54d"] ;
770 -> 771 ;
772 [label="gini = 0.0\nsamples = 1\nvalue = [0, 0, 0, 1, 0, 0, 0]\nclass = l", fillcolor="#39e5e2"] ;
770 -> 772 ;
773 [label="gini = 0.0\nsamples = 1\nvalue = [0, 0, 0, 1, 0, 0, 0]\nclass = l", fillcolor="#39e5e2"] ;
763 -> 773 ;
774 [label="citric acid <= 0.3\ngini = 0.35\nsamples = 100\nvalue = [0, 2, 78, 20, 0, 0, 0]\nclass = a", fillcolor="#6fec7e"] ;
736 -> 774 ;
775 [label="volatile acidity <= 0.41\ngini = 0.44\nsamples = 6\nvalue = [0, 0, 2, 4, 0, 0, 0]\nclass = l", fillcolor="#9cf2f0"] ;
774 -> 775 ;
776 [label="gini = 0.0\nsamples = 4\nvalue = [0, 0, 0, 4, 0, 0, 0]\nclass = l", fillcolor="#39e5e2"] ;
775 -> 776 ;
777 [label="gini = 0.0\nsamples = 2\nvalue = [0, 0, 2, 0, 0, 0, 0]\nclass = a", fillcolor="#39e54d"] ;
775 -> 777 ;
778 [label="density <= 1.0\ngini = 0.32\nsamples = 94\nvalue = [0, 2, 76, 16, 0, 0, 0]\nclass = a", fillcolor="#67eb76"] ;
774 -> 778 ;
